,0,1,2,3,4,5,6,7,8,9,10,11,12,13,14,15,16,17,18,19,20,21,22,23,24,25,26,27,28,29,30,31,32,33,34,35,36,37,38,39
lymphography,0.1536182,-0.2638794,-0.16432635,-0.20501778,-0.2643695,-0.22705135,-0.55324996,0.1823332,0.37220573,0.18608725,0.334486,-0.009955766,-0.469659,0.03526543,0.47571015,0.56112945,0.2995328,0.105496354,-0.22394888,-0.37726936,-0.33796844,-0.16180433,-0.2815908,-0.3427166,0.29410228,0.10868347,-0.08586614,-0.24633458,0.070334524,-0.6083056,-0.20692953,-0.33506092,-0.17876597,0.32773608,0.12684393,-0.22541146,0.21218632,0.37489825,0.17549965,-0.1454482
lymphography#1,0.07973043,-0.32731766,-0.19987307,0.0033046214,-0.5363726,-0.2936375,-0.20577767,0.12583771,0.46408635,-0.13494694,0.14020324,0.32266927,-0.5082489,0.33116347,0.22450647,0.50340676,-0.086986996,0.5330696,-0.4094959,-0.19141969,-0.17115611,-0.057513304,-0.25461438,-0.16496718,0.26766226,0.08249458,-0.03991953,-0.37629858,-0.057441458,-0.5443846,-0.19214278,-0.10943504,-0.24585149,0.3520569,0.093237944,-0.16472141,0.171841,0.37647328,-0.098043345,-0.28595224
lymphography#10,-0.042740136,-0.601178,0.033942416,0.3647524,-0.3458906,-0.27534625,-0.41954324,0.064605854,0.35503832,-0.24691927,0.062508605,0.14197329,-0.12492389,0.34830678,0.38041273,0.5497133,0.009096232,0.36383307,-0.14605491,-0.38103458,-0.15550025,-0.07746603,-0.4177351,-0.21066561,0.45012116,0.25655523,-0.009076506,-0.45408037,-0.058835484,-0.48683032,-0.3018759,-0.32294932,-0.20057648,0.35844925,-0.25492063,-0.1241977,0.150588,0.47084984,0.45239562,0.24589844
lymphography#100,-0.12019705,-0.3846569,-0.2844232,0.07496295,-0.34822822,-0.3072125,-0.31553578,-0.16089654,0.44947118,-0.06309761,0.60931766,0.12785044,-0.480554,0.15372397,0.070307255,0.67529035,0.17356215,0.16390823,-0.2574789,-0.23135526,-0.3053026,0.12474627,-0.4699248,-0.11242315,0.5097149,0.18872923,0.21576542,-0.42628092,-0.044938806,-0.4856414,-0.13368896,-0.024511045,-0.21931733,0.042375933,0.107926816,-0.2894827,0.2383126,0.57191133,0.03558841,-0.19552688
lymphography#101,0.01353049,-0.30424818,0.035098102,0.13823207,-0.16995744,-0.44694605,-0.64390576,-0.07686747,0.5557505,-0.14584416,0.118596435,0.23963372,-0.5091344,0.24535443,0.21475029,0.3873746,0.360902,0.305456,-0.2373315,-0.17028758,-0.22652492,0.0021431127,-0.44867924,-0.28089654,0.38517234,0.28665435,-0.30415738,-0.3023581,-0.1805232,-0.09134099,-0.031304967,0.005476718,0.017320037,0.19809619,0.2788213,-0.24707526,0.46877652,0.50681627,0.15899672,-0.08999221
lymphography#102,-0.042585064,-0.56977516,-0.17455272,0.21586552,-0.49631235,-0.4671467,-0.4029875,0.040512417,0.30160338,-0.06996335,0.051248837,0.1934586,-0.27112037,0.41000608,0.2993438,0.5475986,0.025448455,0.39100733,-0.3078067,-0.21580449,-0.18806215,0.08088224,-0.46579212,-0.19140732,0.5719536,0.12616512,-0.054242954,-0.23276919,-0.23894778,-0.41367242,-0.54929197,-0.26924473,0.01153537,0.022901006,-0.26430094,-0.20246749,0.103138864,0.26422828,0.118952505,-0.005536625
lymphography#103,-0.11370962,-0.47186884,-0.10642648,0.28255793,-0.49126974,-0.37253264,-0.3795257,0.09967285,0.55235237,0.060476903,0.038929597,0.08294612,-0.22215882,0.29870513,0.2363915,0.71693236,0.0828688,0.06821616,-0.20556074,-0.30444074,-0.111361705,0.06006294,-0.27701795,-0.22007972,0.47640783,0.3767948,-0.072696656,-0.28619564,-0.055186857,-0.5655051,-0.36512825,-0.25087515,-0.1732228,0.21423502,0.24501981,-0.07198731,0.5034056,0.4056055,0.16970521,-0.18278797
lymphography#104,-0.28554666,-0.2130772,0.022057734,0.15412515,-0.33910754,-0.5427671,-0.4265486,-0.23871148,0.405101,-0.1807483,-0.017202217,0.31837836,-0.47887015,0.4523742,-0.019304024,0.4660016,0.23141967,0.21913734,-0.40205368,-0.19620007,-0.39158407,0.11595991,-0.4085523,-0.16978973,0.45421726,0.083354875,0.2629398,-0.28590953,-0.08365248,-0.25397414,-0.3490744,0.17959084,-0.18278329,-0.08859796,-0.0014784228,-0.39261052,0.16088098,0.39134628,0.24988776,-0.17652254
lymphography#105,-0.002485661,-0.4731588,-0.15661256,0.34520653,-0.67456037,-0.11112153,-0.40521643,0.107706204,0.42068318,-0.42806217,0.13687034,0.43037662,-0.3380984,0.27086863,0.21886851,0.6387859,0.019711154,0.32832134,-0.2341964,-0.15548137,-0.2718061,0.1296944,-0.3649047,-0.536031,0.23570068,0.106902786,-0.16331226,-0.19092728,-0.24869151,-0.4153982,-0.32105175,0.15968055,-0.18702573,0.2622184,0.051369593,-0.09915435,0.52533937,-0.11939491,0.3935472,-0.36978665
lymphography#106,-0.40022135,-0.46071434,0.099799655,0.24064687,-0.5877064,-0.5173148,-0.34368652,0.025358647,0.56418586,-0.0698882,-0.028816817,0.22680946,-0.33916017,0.31941962,0.36988202,0.24422209,0.095909484,0.20406133,-0.26546967,-0.2061779,-0.52896297,0.017937008,-0.36352086,-0.20563056,0.3327795,-0.07952315,-0.027255783,-0.11687543,-0.25939873,-0.46836522,-0.4489415,-0.029746171,0.02801354,0.12403,0.59840894,-0.24474834,0.5811616,0.20534271,0.061094627,-0.073254414
lymphography#107,-0.07752118,-0.39544278,-0.29737365,0.10411797,-0.3524713,-0.41821635,-0.3786865,-0.16277856,0.63338864,-0.19876663,0.19336556,0.053433273,-0.34950483,0.437136,0.35045066,0.5559473,-0.003618202,0.30239695,-0.32248113,-0.08119585,-0.402323,-0.27646333,-0.5008644,-0.33671063,0.27391922,0.052105382,0.1726551,-0.3157993,-0.3795595,-0.3999303,-0.20121747,0.15572079,-0.23129116,0.123850085,-0.2117875,-0.15791304,0.05197048,0.22554363,0.048485328,-0.14810921
lymphography#108,-0.17831141,-0.19888833,-0.23514217,0.19226316,-0.26180533,-0.4255332,-0.43594,-0.07875958,0.44015417,-0.08411194,0.22067219,0.06264814,-0.40245786,0.20359308,0.30552834,0.39188838,0.13450736,0.3538739,-0.16938767,-0.23715878,-0.17881116,-0.04734419,-0.36921522,-0.11930924,0.35878062,0.1473798,-0.23799203,-0.25870782,-0.17115037,-0.56623113,-0.26743716,-0.24931361,-0.02043323,0.48385316,0.6684008,-0.2031466,0.18885143,0.67684454,-0.16328396,-0.0834222
lymphography#109,0.046315763,-0.39316264,-0.19977199,0.357862,-0.6251443,-0.23191205,-0.41802529,-0.09546976,0.6175435,-0.11077263,-0.0060949405,0.00986804,-0.67424506,0.3163202,0.10722946,0.51029646,0.22250238,0.10853755,-0.10042904,-0.22771892,-0.34334758,0.1460103,-0.41675332,-0.23383917,0.121398084,0.23589818,0.28699294,-0.4176044,-0.16223775,-0.30211976,-0.348373,-0.18810385,-0.30253446,0.04938764,0.373341,-0.3619432,0.35908246,0.044451427,-0.08523081,-0.08573234
lymphography#11,-0.24254446,-0.14259541,-0.079157084,0.40242878,-0.2274437,-0.13103902,-0.4620738,-0.1624404,0.4661598,-0.2928903,0.022256574,0.16291986,-0.35457304,0.50843245,0.100977495,0.37757814,0.3599836,0.35144535,-0.49925506,-0.2026131,-0.25261012,0.03451381,-0.25216413,-0.14839117,0.5022994,0.37614506,-0.0006690547,-0.24264054,-0.2535067,-0.41565874,-0.32540536,0.0015730037,-0.16808966,-0.057559982,0.034642287,-0.17498173,0.15192394,0.60551155,0.302151,-0.11676111
lymphography#110,-0.08967066,-0.5182795,0.024952952,0.18785502,-0.51076025,-0.29811063,-0.50451976,-0.15673485,0.5665215,-0.0029586963,-0.038603213,-0.08193532,-0.36033517,0.21796058,0.4134008,0.34593368,0.0008694969,0.4738751,-0.30907091,-0.1828683,-0.23721822,-0.12342053,-0.33960384,-0.18862446,0.17404918,0.20943874,-0.0010183763,-0.3230924,-0.04736773,-0.42861867,-0.3435515,-0.22656275,-0.1920511,-0.076039396,0.09082299,-0.3185295,0.20067303,0.54325783,0.13027477,0.06893309
lymphography#111,0.02810223,-0.4770439,0.13197087,0.21819013,-0.45850146,-0.4342602,-0.38985065,-0.15502231,0.42700034,-0.2110584,0.33656082,-0.19267759,-0.44025984,0.30179015,0.48659828,0.6040607,0.11675833,0.3868146,-0.12046908,-0.2804344,-0.40755123,0.27464113,-0.47447115,-0.3702462,0.3028277,0.09584666,-0.03182452,-0.48829296,-0.092411555,-0.15270755,-0.16734664,-0.047588136,-0.347857,-0.13680468,-0.097766235,-0.32168496,0.17712961,0.10527237,0.34473723,0.27857414
lymphography#112,-0.050438445,-0.47686374,-0.29683802,0.239313,-0.43333006,-0.5581005,-0.20114456,-0.06949125,0.3044144,-0.22057495,0.4041104,0.32450536,-0.24199253,-0.0148858195,0.29520938,0.6510318,0.09450629,0.3700891,-0.26965925,-0.17960627,-0.7029285,0.03866678,-0.26988316,-0.33400446,0.32994118,0.41373894,-0.03997181,-0.23945343,-0.22229514,-0.18445723,-0.19431071,0.14146262,-0.052144427,0.2622097,0.15568104,-0.37382933,0.26658857,0.48185012,0.10511986,-0.046293
lymphography#113,0.13542852,-0.28956458,-0.06580304,0.109259896,-0.50762105,-0.49465883,-0.29349792,-0.038318057,0.47173554,0.08236928,0.20353314,-0.256915,-0.5254214,0.5041318,0.38974756,0.65982115,0.1638782,0.24458113,-0.25949824,-0.31794068,-0.09655935,-0.10958831,-0.23430775,-0.32640317,0.32005775,0.33865008,-0.08155255,-0.45427075,-0.092888385,-0.36163703,-0.19857547,-0.36124387,-0.14660679,0.19040109,0.10418984,-0.12488273,0.2277138,-0.029281754,0.103456356,-0.27844182
lymphography#114,0.129803,-0.32267022,0.089297794,0.15962298,-0.5127943,-0.45768538,-0.3022687,0.0072074463,0.51099056,-0.26468816,0.05629186,-0.0110660745,-0.3601072,0.24507755,0.12807028,0.682584,0.15182813,0.4247488,-0.38567156,-0.14422081,-0.13570522,-0.065789804,-0.32548836,-0.4047068,0.30345777,0.15144016,-0.22446436,-0.44270402,-0.13852829,-0.47219944,-0.27516922,8.998559e-05,-0.19782516,0.36782902,-0.017895127,0.12255674,0.48139802,0.4012418,0.24115768,-0.00859977
lymphography#115,-0.13698784,-0.2609327,-0.20373885,0.07205321,-0.3151396,-0.46760604,-0.42640537,0.095701955,0.6174941,-0.061750036,0.0074756467,0.23735246,-0.4077025,0.37878078,0.26014426,0.5188651,-0.06226171,0.25549877,-0.13000989,-0.28353095,-0.4529835,0.02184851,-0.58328944,-0.029525664,0.28854886,0.2888676,0.10480611,-0.32083163,-0.08912539,-0.5324129,-0.33516335,-0.4256929,0.104201734,0.23789959,-0.107552476,0.007340892,0.050811604,0.586314,0.022376368,-0.16809504
lymphography#116,-0.16720007,-0.098557584,-0.15590146,0.18119924,-0.39348218,-0.4914329,-0.32800677,-0.08570886,0.6051861,-0.095645875,-0.06484906,-0.043585677,-0.40521404,0.13503617,0.20854312,0.7359446,0.10597829,0.24747758,-0.2972624,-0.16455132,-0.46786836,-0.015833871,-0.47102997,-0.15213549,0.2903079,0.09152531,-0.0233439,-0.44213015,-0.06577002,-0.3999496,-0.30263823,0.024484761,-0.08376272,0.18783228,-0.1974347,-0.33357114,0.15941194,0.69040287,0.12423748,-0.095101014
lymphography#117,-0.254848,-0.2624858,-0.1193478,0.104614414,-0.43176925,-0.25697738,-0.3215729,0.22390312,0.4674666,-0.4106151,0.14800312,0.11609548,-0.37280357,0.46417296,0.4245922,0.59846026,0.14414929,0.3930843,-0.36936894,-0.26309803,-0.5045799,0.06839768,-0.19394483,-0.23169911,0.25908384,0.3259119,0.081953734,-0.25593364,-0.39100888,-0.27048397,-0.2670798,0.13187289,-0.090560034,0.26766795,-0.26751378,-0.1868946,0.13491426,0.0067487955,0.46425337,-0.4711428
lymphography#118,0.096641794,-0.4310282,0.094484165,0.20053118,-0.42450884,-0.33406383,-0.120518886,-0.31494555,0.73194826,-0.4264928,0.17958464,0.2565675,-0.27574927,0.08086616,0.3086777,0.66241,0.26862925,0.52851677,-0.41796702,-0.26983207,-0.34593898,0.10611035,-0.4732757,-0.16110314,0.56904995,-0.046709847,0.00035278624,-0.29549235,-0.28631622,-0.40560275,-0.3518554,0.018061271,-0.19331242,0.33300152,0.1856903,-0.086723685,-0.03366758,0.24097134,0.1978701,0.08760586
lymphography#119,0.06459604,-0.39883548,-0.021337584,0.1780891,-0.34648108,-0.32186043,-0.26680666,-0.196557,0.32766908,-0.21168266,0.6772282,-0.037628476,-0.49422374,0.20501475,0.23966525,0.4745842,0.41808045,0.5016985,-0.047199115,-0.04518744,-0.48667535,0.075070485,-0.1749278,-0.32743338,0.42351338,0.4715872,-0.0552475,-0.31736657,-0.13492541,-0.46223244,-0.18680088,-0.047049217,-0.29241285,0.0666053,0.38762397,-0.08048404,0.48745483,0.605148,0.29457325,-0.21976882
lymphography#12,0.03746736,-0.4338624,-0.32968765,0.1758174,-0.39386818,-0.17867017,-0.39214483,-0.11546989,0.2936509,-0.23352128,0.4560274,0.37219197,-0.38933405,0.11831786,0.27662855,0.43981662,0.20765615,0.34276566,-0.32268742,-0.11660688,-0.29240927,0.24599634,-0.52886194,-0.2923345,0.4105721,0.16504484,-0.18144022,-0.40531325,-0.25432476,-0.130036,-0.18232577,0.08872579,-0.20071504,0.3191757,-0.09746595,-0.19308,0.24454957,0.40003002,-0.07683387,-0.21586919
lymphography#120,-0.026011517,-0.40809223,-0.21100627,0.24299994,0.057377215,-0.11863136,-0.6323796,-0.364358,0.40482184,-0.1717224,0.26182032,0.5279451,-0.37132698,0.5018784,0.10299449,0.3383395,0.27176082,0.4056615,-0.40669706,-0.26130378,-0.43533346,0.07028601,-0.23813945,-0.20804287,0.19490401,0.2751112,-0.14987615,-0.26873314,-0.17868197,-0.3621464,-0.47768697,-0.0075817024,-0.22942212,0.26997465,0.26554412,-0.24261466,0.40252808,0.6775976,0.051350992,-0.2569556
lymphography#121,-0.107668996,-0.1221967,-0.2770468,0.492916,-0.47997501,-0.4640483,-0.27759826,-0.04601568,0.2942039,-0.10900561,0.022240391,0.05756276,-0.37685147,0.33407792,0.31138343,0.5928353,0.010266124,0.12923937,-0.49635985,-0.3349788,-0.22827792,0.19391751,-0.3998972,-0.18289998,0.45876727,0.01658199,-0.24838024,-0.47875077,-0.05287845,-0.48899713,-0.34808132,0.06744357,-0.05893783,0.31699836,-0.35851476,-0.1935812,0.42115983,0.3002531,0.28594735,0.043912202
lymphography#122,-0.07818005,-0.31674847,-0.03370118,0.08245918,-0.21286277,-0.42006662,-0.18767263,-0.13925171,0.39841676,-0.1519278,0.3235435,-0.33167604,-0.4651355,0.34124213,0.28567863,0.7134146,-0.04639351,0.3850801,-0.39388865,-0.108313486,-0.1499712,-0.13926925,-0.32015345,-0.35287803,0.31309518,0.16209778,-0.028530251,-0.51826704,-0.072888985,-0.42676204,-0.16240574,-0.018006863,-0.10974199,0.27062953,-0.23720936,-0.045232896,0.22315454,0.4809767,0.22190955,-0.1888503
lymphography#123,-0.093061805,-0.031094408,0.0803505,0.3242134,-0.33583498,-0.46248615,-0.22881176,-0.20777728,0.5523902,-0.17633294,0.26012912,-0.13357086,-0.6129591,0.53307176,0.1361155,0.3988434,0.23199965,0.28515527,-0.53262275,-0.12127427,-0.35979527,-0.031302165,-0.3419201,-0.15960716,0.5375593,0.11102738,0.076238826,-0.28426167,-0.16513562,-0.38143122,-0.2425427,0.123025715,-0.0649096,-0.04976418,0.035010472,-0.19826466,0.27137712,0.49040377,0.06303998,0.055931255
lymphography#124,0.05183009,-0.57589954,-0.15563303,0.26751468,-0.41539446,-0.21197206,-0.23846634,-0.08259227,0.31912786,-0.2664051,0.16946223,0.25242335,-0.27782196,0.094086096,0.30515748,0.54780495,0.04429596,0.3384888,-0.027108304,-0.2688025,-0.24438696,-0.25644225,-0.6316472,-0.3699923,0.4101771,0.014879016,0.24465917,-0.4377465,-0.1644572,-0.3434413,-0.27927136,-0.17891033,-0.09778109,-0.105110385,-0.05675699,-0.30299103,0.40271387,0.22620039,0.16039631,-0.16185197
lymphography#125,0.0088776685,-0.4753375,-0.12138391,0.18372108,-0.31897476,-0.2073644,-0.41092443,-0.17710033,0.31843612,-0.12666677,0.29757062,-0.13075083,-0.39688686,0.21994561,0.191616,0.63846195,0.08468234,0.45563018,-0.41346762,-0.21046248,-0.5488053,0.06433865,-0.24580684,-0.2654684,0.26507056,0.047178052,0.10103046,-0.498041,-0.26371017,-0.64972097,-0.24943252,0.0050078663,-0.1674329,0.22166023,-0.24887618,-0.05208064,-0.009592724,0.025043052,0.13823976,-0.0048315753
lymphography#126,-0.27638245,-0.43373743,0.015309177,0.16879086,-0.5135692,-0.445983,-0.33270904,-0.3328987,0.5859621,-0.34040117,-0.05212476,0.27314565,-0.47920135,0.15427223,0.22277986,0.7006223,0.31411496,0.31158727,0.007007196,-0.21489932,-0.432326,-0.1783777,-0.23733386,-0.12493465,0.432303,0.14468795,0.20032838,-0.22194467,-0.105074026,-0.50042933,-0.27894184,-0.16603892,0.23229085,0.30072853,0.6547014,-0.075303175,0.39932212,0.24139011,0.0072525246,-0.1820618
lymphography#127,0.026081162,-0.43678582,-0.03548998,0.19083059,-0.58190465,-0.18744436,-0.46664897,0.017443728,0.30782846,-0.2582769,-0.04275461,-0.1840243,-0.51853174,0.44451702,0.42026386,0.3937993,-0.022746827,0.44371477,-0.34780604,-0.23064426,-0.4301847,0.068372756,-0.36740878,-0.087689936,0.21806152,0.26977056,0.054005466,-0.18722923,-0.19825761,-0.42793158,-0.30106032,0.22858325,-0.16256541,0.0065403236,-0.29541183,-0.3904011,0.33472466,0.2347461,0.31284624,-0.124539636
lymphography#128,-0.15194266,-0.39922705,0.0010986616,0.28121096,-0.51789886,-0.2607866,-0.43631527,-0.085828915,0.44286543,-0.24829409,-0.12052431,-0.38338515,-0.41403952,0.29209185,0.2312628,0.65447456,0.008772713,0.45212454,-0.25062886,-0.085091636,-0.3893956,0.07298866,-0.34869865,-0.32725298,0.40483052,0.16089676,0.1647608,-0.31286967,-0.17491299,-0.61194056,-0.33327657,-0.02724698,0.00929406,0.033089843,-0.0685178,-0.35246482,0.30397522,0.3248095,0.16152672,0.08664684
lymphography#129,-0.09123037,-0.16717759,-0.13568278,0.101618335,-0.31242236,-0.5316255,-0.25392997,0.025824713,0.5230864,-0.25984544,0.30600724,0.15553772,-0.41217428,0.1529776,0.23525323,0.6867949,0.2569078,0.38765967,-0.3157258,-0.16475073,-0.02537711,-0.09319146,-0.22471653,-0.25047383,0.3787696,0.2539371,-0.08692846,-0.3054715,-0.09144116,-0.55254763,-0.23660545,-0.058775548,-0.09488357,0.45205736,0.13382624,-0.16266112,0.20403758,0.3665366,0.016611224,-0.0659411
lymphography#13,0.22422554,-0.5621412,-0.032606572,0.21170829,-0.5788742,-0.33298713,-0.19800045,-0.2610163,0.60220134,-0.05880218,0.36237612,-0.110731386,-0.3255176,0.41522247,0.274226,0.66076577,0.051801603,0.38916975,-0.37145486,-0.35056266,-0.5117264,0.13104698,0.009680778,0.022675693,0.34640077,0.24784437,0.07573582,-0.34803435,-0.09206575,-0.47525072,-0.16840877,-0.3990872,-0.30647036,0.1375495,-0.06536624,0.19416362,0.51504016,0.33489627,-0.016288554,-0.43920517
lymphography#130,-0.08954101,-0.2562815,-0.25196934,0.1346816,-0.55797327,-0.17161976,-0.47108278,-0.06720305,0.51678073,-0.3146304,-0.14220263,0.22225589,-0.4176668,0.29735366,0.1137962,0.6441664,0.13040432,0.203108,-0.3420778,-0.1441273,-0.32742554,0.06202581,-0.5096753,-0.1593632,0.51283383,0.18630247,0.017974114,-0.3930087,-0.14875646,-0.3893541,-0.35256714,0.12075037,-0.05006078,0.1422707,-0.07702975,-0.24205649,0.24313697,0.5797117,0.13158779,-0.19132307
lymphography#131,-0.43159065,-0.3699831,0.03696662,0.29601562,-0.289807,-0.41725656,-0.42663828,0.024200357,0.5974768,0.043521084,-0.12079755,0.05372199,-0.40789104,0.49359423,0.17846587,0.269877,-0.021820335,0.3203017,-0.38239545,-0.056509722,-0.48529047,-0.21400979,-0.36905807,-0.5100691,0.16380969,0.09930771,-0.16170064,-0.39639047,-0.25042945,-0.41189694,-0.26360312,0.10729846,-0.202976,0.1624627,0.33928296,-0.35183468,0.50064355,0.707387,0.122880615,0.17586103
lymphography#132,-0.21197563,-0.24887513,-0.31558087,0.2565026,-0.23972595,-0.36092523,-0.2542476,0.05863606,0.48006007,0.010396264,0.12955326,0.24582128,-0.2213409,0.15767461,0.24456267,0.42348433,0.200621,0.46909842,-0.4428282,-0.35397086,-0.561899,0.02414487,-0.53136396,-0.036727812,0.37810618,0.3117574,-0.017218197,-0.037200235,-0.23000224,-0.4726146,-0.39955738,-0.271642,-0.13179024,0.3169085,0.43305248,-0.10744543,0.40801626,0.38416532,-0.17197879,-0.12668276
lymphography#133,-0.048511926,-0.25953162,-0.284363,0.21497357,-0.5139371,-0.4344424,-0.27302375,-0.04962436,0.3690026,0.0040893713,-0.09825587,0.39720276,-0.3147157,0.28038004,0.29659447,0.58963096,-0.11845392,0.40440813,-0.25236493,-0.34495753,-0.626416,0.11395814,-0.3438038,-0.057804715,0.34885404,0.14035861,-0.392297,-0.35509354,-0.21733166,-0.36541855,-0.39581412,-0.22486056,-0.10283906,0.34939402,0.37905475,-0.08486897,0.48446348,0.53240895,0.102040336,-0.24743672
lymphography#134,-0.13585201,-0.45413762,-0.16492355,0.2859162,-0.1506249,-0.23058333,-0.48604783,-0.10427465,0.5675689,-0.21732204,0.4295347,0.11466272,-0.2263457,0.42773256,0.34406984,0.5252661,0.09270898,0.1271983,-0.34259924,-0.25495136,-0.37118196,-0.20536648,-0.33287814,-0.24833842,0.21475191,0.07345736,0.21395914,-0.27623108,-0.15506998,-0.4195354,-0.2695909,0.1923119,-0.19233654,0.35148695,-0.16806369,-0.22527467,-0.051629107,0.4149136,0.09234217,-0.115388095
lymphography#135,-0.27963236,-0.31775162,-0.11370129,0.1931313,-0.3619716,-0.39380655,-0.5363099,-0.0010642015,0.512199,-0.299967,0.023452697,0.023896605,-0.5107903,0.16137385,0.24557588,0.3670164,0.15321827,0.40892854,-0.33641595,-0.06492052,-0.26704067,0.10367115,-0.36594594,-0.28101474,0.26897502,0.3580435,-0.03672682,-0.431597,-0.4328639,-0.5323997,-0.3627398,-0.47224683,-0.005719686,0.19802861,0.2298434,-0.20510456,0.108149014,0.13751958,-0.12617917,0.016003935
lymphography#136,-0.22727093,-0.38533056,-0.04235596,0.26546142,-0.35413077,-0.19369987,-0.34524345,-0.039983366,0.5946911,-0.10934557,0.11376621,0.122979365,-0.5100866,0.23302491,0.31599784,0.7467583,0.3302739,0.38379258,-0.24084647,-0.14750594,-0.52517796,-0.21116737,-0.5517107,-0.07287453,0.4986191,0.049524825,0.39372447,-0.07400959,-0.31158364,-0.37180814,-0.28776184,-0.2399105,-0.13659501,-0.09929426,0.33721462,-0.010108464,0.25542212,0.31486678,-0.16767895,-0.09039989
lymphography#137,0.022220686,-0.32974607,0.009884602,0.12565759,-0.14090909,-0.64714426,-0.35396102,0.2850068,0.3333216,0.034256306,0.010363572,0.18898858,-0.25957274,0.43294686,0.050053712,0.71109414,0.037353665,0.30744076,-0.06717458,-0.37979347,-0.2561802,-0.048089657,-0.5379909,-0.15248148,0.3659935,-0.093493395,0.11197518,-0.3147192,0.011189161,-0.6818455,-0.40360406,-0.17158361,0.00034396726,0.30562642,-0.32438353,-0.33021748,0.6027783,0.79007244,-0.059433892,0.07882717
lymphography#138,-0.26345125,-0.38294405,-0.17573686,0.35104752,-0.83684355,-0.26296717,-0.53833044,-0.14361,0.37845263,-0.120780945,0.37878725,0.11894289,-0.29669148,0.34602356,0.28168413,0.649854,0.44774663,0.56181973,-0.11999484,-0.16541488,-0.19968489,0.2767484,-0.36873952,-0.38499093,0.19002631,0.3108317,-0.20657428,-0.14214835,-0.28851354,-0.37532917,-0.29387674,0.05016429,0.0010095157,0.2297629,0.4745715,-0.108277,0.5592313,0.0628387,0.18704428,-0.262045
lymphography#139,0.0039036644,-0.5249553,-0.045664497,0.08122359,-0.5797589,-0.36728382,-0.32642406,-0.06520613,0.21764784,-0.11322946,0.5973228,-0.18030809,-0.4043346,0.2842668,0.45725855,0.55756706,0.046256077,0.52533495,-0.27736095,-0.15828553,-0.28214088,0.0059009576,-0.47918725,-0.35257834,0.2645866,0.16155079,0.09191113,-0.26542917,-0.10336914,-0.32192066,-0.08741141,-0.19305593,-0.18095025,-0.12268142,-0.08985589,-0.46380547,0.2734876,0.2669134,-0.010552235,0.04774449
lymphography#14,-0.31203493,-0.34185064,-0.39131975,0.1117946,-0.36863792,-0.49701113,-0.21548928,0.19166489,0.2978418,-0.3796335,0.272156,0.45790422,-0.34249952,0.18551515,0.16967538,0.69967353,0.18649806,0.46438783,-0.13007188,-0.26225755,-0.5187759,-0.028214,-0.24879268,-0.152073,0.14946173,0.20829499,-0.08853858,-0.122213036,-0.21024485,-0.3534551,-0.3671123,-0.25325418,-0.26030213,0.42624718,0.31776252,-0.10988549,0.3660289,0.39106083,0.38992232,-0.12715635
lymphography#140,-0.31858483,-0.34022698,-0.0760306,0.12870578,-0.56169724,-0.22665483,-0.15911227,-0.2971379,0.35403758,-0.05368751,0.30732632,0.41122812,-0.37686196,0.3488383,0.48408923,0.6253676,0.51935667,0.32235327,-0.27993748,-0.3485805,-0.44479033,-0.28307024,-0.38906658,-0.3631058,0.06268708,-0.06438269,0.396636,-0.37836567,0.06534312,-0.48162416,-0.16022179,-0.30939105,0.18960123,0.108187094,0.21923508,-0.31892493,0.15415823,0.46318728,0.2761368,0.048707455
lymphography#141,-0.17527056,-0.44075194,-0.15362586,0.080828674,-0.3707196,-0.4433887,-0.5453925,-0.22548287,0.57516277,-0.091069706,0.10047524,-0.3865668,-0.28931832,0.34812406,0.36478424,0.31697005,-0.07116112,0.31425655,-0.3824325,-0.107372254,-0.33510166,-0.046779882,-0.4027248,-0.20976442,0.420316,0.035756655,0.13115391,-0.1922393,-0.10979619,-0.55793035,-0.43388975,-0.21482143,-0.15766859,-0.012860428,-0.25710863,-0.2829776,0.09389233,0.5860409,-0.11501042,-0.21679239
lymphography#142,0.01264036,-0.16584708,0.07545138,0.175801,-0.45763507,-0.48425955,-0.24311122,0.2481392,0.6237149,-0.33824918,0.29211184,0.10252401,-0.29444233,0.22711043,0.22175558,0.32671002,0.08337176,0.3694673,-0.3732047,-0.31770214,-0.19255558,0.09446856,-0.55785745,-0.18202046,0.41174078,0.20487715,-0.28504592,-0.49534798,-0.25817904,-0.4930737,-0.17612343,-0.016278243,-0.2578298,0.18905158,-0.19090237,-0.25948802,0.22969441,0.1306764,0.14797398,-0.053671815
lymphography#143,-0.32345334,-0.50854033,0.08944817,0.26978877,-0.22172448,-0.3686511,-0.5822685,-0.19714962,0.42285025,-0.3068125,0.041060425,-0.035536356,-0.39887774,0.08197133,0.34923694,0.46590114,0.16437319,0.40487367,-0.2919689,-0.18523589,-0.18282627,-0.03088235,-0.31085056,-0.2841751,0.16142116,0.12756956,0.082293645,-0.28976655,-0.117830105,-0.45941055,-0.33441028,-0.2652747,-0.16277511,-0.005270794,0.0703696,-0.25794294,0.11545002,0.6203431,0.12511897,0.11011717
lymphography#144,-0.32485244,-0.27538893,-0.057735324,0.0815908,-0.32827196,-0.29490498,-0.50710166,-0.076502785,0.6294549,-0.30779603,-0.17372815,0.39029172,-0.39439586,0.32206944,0.05798312,0.55031246,0.08720765,0.33818665,-0.48339477,-0.11619719,-0.48197055,-0.07282593,-0.18014933,-0.20907746,0.19950537,0.15986083,0.28427273,-0.42036554,-0.22471018,-0.5739267,-0.34423518,-0.01599764,-0.21517384,-0.0024602273,-0.16509506,-0.16753529,0.25341752,0.45531005,0.03281707,0.04164665
lymphography#145,-0.10562391,-0.09143391,-0.13290045,0.23731242,-0.53375864,-0.49661788,-0.2657154,-0.028498756,0.2243435,-0.21575357,0.5626788,0.0069860737,-0.45367613,0.19028974,0.4766102,0.6720288,0.30456486,0.18472175,-0.37845963,-0.262192,-0.47110412,0.21273236,-0.2516428,-0.4988201,0.19170018,0.25178197,-0.012327747,-0.22212094,-0.027778745,-0.43556124,-0.32228234,0.031712558,-0.23761275,0.4204569,-0.20501478,-0.26637033,0.21418406,0.18133138,0.18352558,-0.08921418
lymphography#146,-0.18644449,-0.38698232,0.038013324,0.21381605,-0.42520893,-0.4035515,-0.5262412,-0.17320563,0.61694,-0.3067327,-0.16469029,0.07637276,-0.2862643,0.20307578,0.39325184,0.47094116,0.30520722,0.54891133,-0.2338596,-0.15179197,-0.20177124,0.023611272,-0.3762488,-0.18997474,0.15389325,0.0060124,-0.1069895,-0.3048337,-0.2888428,-0.24271472,-0.41301608,0.20455244,-0.14573985,0.13580297,0.12616509,-0.249882,0.26449946,0.57936287,0.1567523,0.1556901
lymphography#147,-0.23247263,-0.17487288,0.093138404,0.124681324,-0.399795,-0.54231364,-0.5266741,-0.18597044,0.44865644,0.002551445,0.4031152,0.024198174,-0.54096746,0.2786251,0.17692779,0.48283678,-0.12840478,0.25424922,-0.32372597,-0.027740387,-0.34325293,0.16249119,-0.41723692,-0.44408324,0.32301491,0.19377773,-0.19613165,-0.36010748,-0.22298954,-0.40281966,-0.20654288,-0.39131367,0.12787934,0.21141478,0.0726397,-0.4626834,0.3269465,0.5788176,0.08335291,-0.2547094
lymphography#148,-0.24337801,-0.19212647,-0.04420141,0.3540793,-0.5302056,-0.15710315,-0.45724857,-0.10571636,0.34587887,-0.2918306,0.24951236,0.0006487315,-0.34631908,0.21448544,0.2743088,0.5968244,0.21804559,0.4415681,-0.37646234,-0.086806014,-0.33379197,0.22924863,-0.6502144,-0.33907196,0.28655788,0.28798485,0.11726894,-0.18107699,-0.27043426,-0.118926674,-0.29508546,-0.055826444,-0.0349497,0.025650932,0.4573379,-0.59348977,0.44094256,0.5144764,0.0044384017,-0.07430662
lymphography#15,-0.29691908,-0.1371624,-0.25783938,0.38013566,-0.8970003,-0.36940464,-0.16637793,-0.121202104,0.43277287,0.17658688,-0.09166594,0.3705563,-0.50561774,0.3839665,0.29225296,0.60811937,0.57087564,0.35185707,-0.42499134,-0.21752335,-0.34827283,-0.20380536,-0.116673745,-0.10540957,0.31369895,-0.008731139,0.3999659,-0.27145946,-0.013877317,-0.35769704,-0.37963548,-0.2875821,-0.17339613,0.2661806,0.28616926,-0.31748244,0.533187,0.22267893,0.17121866,-0.050633833
lymphography#16,-0.2003726,-0.57458925,-0.19908926,0.23783056,-0.6575705,-0.37853563,-0.51290375,-0.14323723,0.34782803,-0.19792312,0.16798615,0.2525817,-0.33687407,0.12969124,0.2848301,0.46762475,0.2015296,0.3809342,-0.2802506,-0.22561374,-0.0477246,-0.036294095,-0.3757805,-0.18804923,0.347797,0.10526713,-0.0047307503,-0.26822093,-0.1976189,-0.4368105,-0.45841545,-0.16681218,-0.2318702,0.013552827,0.15744416,-0.24655688,0.15546863,0.22445579,0.010369311,0.14485382
lymphography#17,-0.11801027,-0.41896963,-0.20325042,0.22892286,-0.253803,-0.51360697,-0.582178,-0.115736075,0.54667616,-0.14251931,0.42834157,0.1107594,-0.22204831,0.39292297,0.10247766,0.53991115,-0.008817586,0.32741076,-0.3581438,-0.1940135,-0.36039227,-0.14589119,-0.5254368,-0.26320347,0.34620604,0.05131303,0.27371675,-0.081885815,-0.38282648,-0.41209847,-0.08933912,0.06614403,-0.19730806,0.06988601,-0.20008594,-0.29918495,0.045131538,0.38177842,0.13637576,-0.08363301
lymphography#18,-0.034275476,-0.4151239,-0.031233633,0.21720734,-0.7770025,-0.2753871,-0.27716392,-0.10077906,0.27274668,-0.33683142,0.20877373,-0.042807378,-0.29666775,0.24150072,0.06550556,0.62589693,0.0874381,0.35948718,-0.48993543,-0.24180202,-0.120584056,-0.011871179,-0.2002696,-0.23020019,0.26977077,0.19089656,0.06697687,-0.50774634,-0.059603307,-0.5846612,-0.286949,-0.029154137,-0.08433752,0.14382471,-0.09184142,-0.32853746,0.24433681,0.043990932,0.07506299,0.012656184
lymphography#19,-0.31224495,-0.42622516,0.023606125,0.21033812,-0.27388883,-0.52797693,-0.34449005,-0.0581742,0.4587499,-0.21135607,-0.16755594,-0.021926733,-0.32431504,0.32997823,0.21688505,0.6937165,-0.06510003,0.35999212,-0.28232813,-0.2788236,-0.30495256,-0.0931758,-0.41765818,-0.15109083,0.34958836,0.05510608,0.18277086,-0.22023188,0.07860632,-0.3755816,-0.33540756,-0.2656447,-0.054223113,-0.036622226,-0.1782095,-0.026489379,0.16314852,0.46706918,0.27439094,-0.35933265
lymphography#2,-0.19565198,-0.37146246,-0.3466637,0.2580381,-0.61873335,-0.042458586,-0.38028732,-0.11801073,0.544006,-0.41584417,-0.03671142,0.31379685,-0.38775545,0.3063536,0.13001129,0.6661648,0.19192113,0.31315276,-0.34560177,-0.21543226,-0.22872531,-0.114871725,-0.40439433,-0.17348202,0.16245635,0.14861275,0.2806301,-0.17038953,-0.1598542,-0.34421858,-0.33309257,0.17790735,-0.08334679,0.16163154,-0.0494737,-0.20472161,0.39493608,0.12278176,0.19294979,-0.2587714
lymphography#20,-0.11385196,-0.07743153,-0.14347045,0.3433744,-0.10931183,-0.30147937,-0.6915497,0.012232065,0.45184833,-0.19232592,0.43471742,-0.16986015,-0.2175256,0.6400048,0.33073154,0.66742516,0.01325635,0.24652185,-0.29462397,-0.15920833,-0.28153026,-0.14335497,-0.40090063,-0.4499093,0.30578595,0.17090695,0.023233049,-0.120593965,-0.2529193,-0.3411026,-0.5377707,0.17913333,-0.00666744,0.07844418,-0.19801493,-0.31274584,0.06644866,0.17527749,0.23477957,-0.1073155
lymphography#21,-0.044764023,-0.36183137,-0.123580046,0.11541653,-0.34645092,-0.3418043,-0.47881478,-0.028388346,0.4731887,-0.08278972,0.018946664,0.2973487,-0.48885846,0.2896617,0.13870454,0.5528971,0.046567373,0.17492239,-0.20346779,-0.19697252,-0.4717072,-0.07590103,-0.54321647,-0.047261458,0.4776009,0.29382494,-0.11296914,-0.284597,-0.106053255,-0.32369536,-0.099309534,-0.3495072,0.01596048,0.0010053966,0.3288615,-0.0801275,0.4963076,0.49231443,0.29824498,-0.26279557
lymphography#22,-0.21243908,-0.36005566,-0.10161723,0.20830084,0.054510135,-0.17764488,-0.5920062,-0.24030067,0.4921873,-0.5460828,0.4856047,0.4944506,-0.4220483,0.17242184,0.34944195,0.46816364,0.3525053,0.5950271,-0.21775284,-0.14497556,-0.46049985,-0.11681627,-0.19926493,-0.27978447,0.23209493,0.16691782,-0.085532084,-0.26022986,-0.25985095,-0.25063017,-0.38796303,-0.22355913,-0.13820781,0.09253371,0.14316043,-0.2877748,0.23083751,0.3624334,0.3020727,-0.08542787
lymphography#23,-0.118944466,-0.42699558,-0.31035334,0.20412248,-0.08424775,-0.20524526,-0.33234423,-0.010288936,0.38649988,-0.30425507,0.2288254,0.22383402,-0.3993808,0.117780425,0.054108914,0.538519,0.09795902,0.28544927,-0.44162756,-0.05151484,-0.4538541,-0.011874383,-0.3995849,-0.47557738,0.28936484,0.17240353,0.15461588,-0.25027195,-0.43393508,-0.41218528,-0.51595163,0.10072151,0.02048636,0.14556943,0.046131026,-0.20060134,0.42531905,0.3446324,-0.009954912,-0.0075956653
lymphography#24,-0.01788569,-0.4958142,-0.016924309,0.18256134,-0.50449497,-0.091843754,-0.41057298,0.018043304,0.5512717,-0.035730418,-0.07654407,0.17177145,-0.47214374,0.64689344,0.18176652,0.48835105,0.09953843,0.1771224,-0.2595397,-0.15961897,-0.2912725,-0.13413753,-0.13159578,-0.18594886,0.08466527,0.2566869,0.23008582,-0.45900887,0.035723347,-0.529455,-0.35175428,-0.33630344,-0.18484272,0.08000194,0.25953466,-0.2504944,0.1679182,0.6845877,0.1406043,-0.23732485
lymphography#25,0.1263879,-0.20135742,-0.375858,-0.068482704,-0.78844017,-0.32395938,-0.25989154,-0.014756487,0.48626143,-0.22034638,0.47906065,0.3599552,-0.44892457,0.5790543,0.2159739,0.46315587,0.21710092,0.5457919,-0.1963742,-0.09030796,-0.35390076,-0.27226165,-0.17511037,-0.47202623,0.2391051,0.24121436,0.02756568,-0.52449644,0.06950639,-0.2612552,-0.10745727,-0.30051002,-0.38640916,0.47888687,0.18745987,-0.20337884,0.2883781,0.3657562,0.36117473,-0.22573042
lymphography#26,0.0010315775,-0.2588167,-0.40551305,0.23331147,-0.32235274,-0.31908244,-0.39110047,-0.24700949,0.42007715,-0.3913786,0.3335769,0.2989564,-0.33346668,0.23919198,0.32295942,0.66014254,0.37028426,0.37754154,-0.020742284,-0.24923626,-0.15543047,0.08308587,-0.5575032,-0.102369994,0.49364987,0.0040193056,-0.011666917,-0.45680776,-0.23404416,-0.39645943,-0.15851201,-0.007771358,-0.027882481,0.24489059,-0.16397645,-0.15728173,0.12565298,0.31818482,0.27780434,-0.13589253
lymphography#27,-0.3500046,-0.44548056,-0.041442096,0.10457706,-0.102656476,-0.22496241,-0.58616114,-0.08305209,0.4531343,-0.42488554,0.36656517,0.36291885,-0.35703582,0.102532126,0.22417796,0.58040696,0.4197295,0.48637748,-0.10159683,0.01995622,-0.5311615,0.20951924,-0.31494758,-0.44215104,0.28483084,0.19224393,-0.17338727,-0.39754283,-0.27596623,-0.2664784,-0.39188594,0.1113856,-0.06899804,0.2690945,0.29965046,-0.19763172,0.5428017,0.54854625,0.14058548,-0.19297385
lymphography#28,-0.11990289,-0.25277978,-0.1902563,0.08307448,0.005709807,-0.4090091,-0.43348706,0.06179042,0.56080836,-0.38436353,0.09298469,0.17606983,-0.5214006,0.38883114,0.40316236,0.3822855,0.06055146,0.52547574,-0.20426759,-0.1326094,-0.43178868,0.13665013,-0.3186099,-0.1823426,0.2780855,-0.039134596,-0.32244813,-0.4584255,-0.13087983,-0.40824285,-0.2221464,-0.06251466,0.06879055,0.36574852,-0.08678843,-0.23494612,0.1911831,0.66179174,0.017847033,-0.41315195
lymphography#29,-0.12027702,-0.5239383,-0.14499006,0.20383908,-0.52311456,-0.3878008,-0.11873141,0.035800654,0.37639782,-0.19509761,-0.037364576,-0.037174582,-0.33159143,0.37457392,0.28637677,0.6682932,0.0011964578,0.4089117,-0.42645505,-0.11298701,-0.45809963,0.12844564,-0.09216659,-0.2903052,0.3558169,0.19790043,0.12609619,-0.34442574,-0.12420428,-0.51926017,-0.20430228,-0.012050354,-0.17959848,0.21223328,-0.24793397,-0.26582667,0.18004231,0.43083185,0.08706629,-0.33776966
lymphography#3,-0.13066879,-0.1490728,-0.34890243,0.24598259,-0.03926386,-0.263667,-0.19125752,-0.19751245,0.4056003,0.013658932,0.26633343,0.28946114,-0.23171858,0.23460828,0.42050794,0.47910258,0.32090664,0.49299467,-0.28691715,-0.18289725,-0.53705114,-0.36283213,-0.5675095,-0.15957941,0.36951584,0.12133956,0.2763594,-0.18556064,-0.30089396,-0.6013285,-0.3420271,-0.29622057,-0.040214103,0.24848342,0.58978117,-0.008106423,0.10834955,0.63347846,-0.021645473,-0.07161634
lymphography#30,0.05134924,-0.13859141,-0.15693842,0.12787536,-0.5508812,-0.48343322,-0.3516262,-0.1381879,0.64094067,0.057511907,0.07481452,0.03345822,-0.44775063,0.30881163,0.1909702,0.56041473,0.04335488,0.08728192,-0.32690436,-0.14947645,-0.45237446,-0.07388088,-0.3563766,-0.115301766,0.33057138,0.06546238,-0.12220117,-0.5077971,-0.11037802,-0.5111014,-0.146666,-0.10979876,-0.14624347,0.44603255,-0.09989442,-0.15070252,0.26059702,0.51662296,0.1042217,-0.3201725
lymphography#31,-0.14301904,-0.07004855,-0.38471368,0.33867607,0.2528165,-0.37003288,-0.6512961,-0.0012570693,0.2336694,-0.18184197,0.37081102,0.08778959,-0.22061148,0.29297566,0.23015949,0.5430643,0.22830446,0.5057028,-0.3078321,-0.20621097,-0.47609103,-0.11364227,-0.42924434,-0.22882712,0.47706386,0.07403313,0.026552072,-0.06266548,-0.3226253,-0.47539207,-0.23792471,-0.13470982,-0.18301134,0.48319396,0.09582825,-0.24791493,0.3423429,0.34186456,0.041330177,-0.1956776
lymphography#32,-0.06579232,-0.33996832,-0.23805802,0.12029205,-0.07722926,-0.36593357,-0.51821023,-0.12386007,0.33808118,-0.31769803,0.5133757,-0.03034137,-0.40401235,0.5397768,0.38101736,0.4334916,0.19332245,0.51511717,-0.24393967,-0.09677376,-0.20775467,-0.06798541,-0.37904593,-0.2217002,0.5710222,0.18413204,-0.30725396,-0.27733022,-0.27495557,-0.18577565,-0.13528892,0.005460813,0.008974804,0.088733815,-0.102095135,-0.27698198,0.1823309,0.681254,0.43402404,-0.15707882
lymphography#33,-0.10410682,-0.36950073,-0.12704921,0.3588257,-0.58689016,-0.65284586,-0.26922676,-0.14893112,0.5382258,-0.19661462,0.2861553,-0.04467405,-0.47847444,0.5474917,0.4329131,0.5504698,0.23574252,0.14700414,-0.23308207,-0.2416624,-0.05107171,-0.07365993,-0.1278566,-0.19120243,0.22355963,0.13557518,-0.10891669,-0.39672136,-0.17839785,-0.22883733,-0.23660016,-0.18604735,-0.09350165,0.1715147,0.24823135,-0.17305204,0.33725756,-0.10952459,-0.09304117,-0.31534052
lymphography#34,-0.07386017,-0.31305224,-0.34465334,0.21244629,-0.6869533,-0.30283117,-0.20186888,-0.019798547,0.19414559,-0.11739526,-0.11401405,-0.19115329,-0.41066518,0.71512645,0.42257595,0.6775492,0.231844,0.3363906,-0.33867654,-0.30418718,-0.29699993,0.057754945,-0.1465582,-0.24772698,0.20543115,0.4320443,0.08266129,-0.3297175,-0.058079675,-0.49127463,-0.42662433,-0.15474501,-0.10909227,0.06778075,-0.29638177,-0.4105342,0.32676837,-0.099005245,0.008991376,-0.14616859
lymphography#35,-0.050489295,-0.5155033,-0.24734356,0.17050761,-0.08435492,-0.094871536,-0.4457535,-0.046135098,0.34413305,-0.43493494,0.3074802,0.40713564,-0.38514742,0.046294164,0.17322008,0.5697625,0.2228575,0.42517072,-0.35856995,-0.041720424,-0.34408143,0.15656237,-0.5189788,-0.3437944,0.3737925,0.28611815,-0.012765898,-0.30787984,-0.30137452,-0.18599886,-0.4510418,0.0065476038,-0.010963751,0.19531313,0.0998069,-0.2931072,0.38779724,0.42722043,-0.033052612,-0.17917328
lymphography#36,0.0686536,-0.26775017,-0.22752309,0.23779444,-0.6583412,-0.15761155,-0.31323266,-0.09695588,0.4525917,-0.24237257,0.066409394,0.11419165,-0.3460178,0.16066585,0.38284668,0.5153155,0.31990302,0.6059842,-0.39796305,-0.21376884,-0.13726734,-0.010959924,-0.5461308,-0.12340921,0.29085886,0.15515128,-0.010547013,-0.22504833,-0.2115288,-0.26380932,-0.41526878,0.08950748,-0.13461027,-0.029026212,0.17474762,-0.32823908,0.26985908,0.394602,0.05616219,-0.0049179387
lymphography#37,-0.105147235,-0.21121646,-0.06149866,0.06567451,-0.49652755,-0.19257212,-0.37572923,-0.26177815,0.40068594,-0.1615239,-0.073399074,0.4048773,-0.42706552,0.10801579,0.20115462,0.36885878,0.46156242,0.30218473,-0.34394914,-0.33768678,-0.6438945,-0.18233943,-0.34185353,-0.13277623,0.05082135,0.12820038,0.1800886,-0.48530206,0.04966206,-0.55152917,-0.2636032,-0.2773543,0.04081184,0.5208773,0.17930175,-0.18591952,0.52072203,0.5044193,0.27942514,-0.03004611
lymphography#38,-0.23992662,-0.38534266,-0.33027342,0.31164637,-0.4327728,-0.38019595,-0.45326924,-0.10829081,0.47640064,-0.12433071,0.45548674,0.38262102,-0.38055262,0.25765586,0.12761502,0.6734392,0.20196198,0.18419158,-0.038725644,-0.053552818,-0.56874377,-0.093404576,-0.54897046,-0.3874355,0.23689376,0.18916552,-0.11561166,-0.227665,-0.2986334,-0.29676875,-0.24021481,-0.09199279,0.0377231,0.23949303,0.70346224,-0.16455637,0.51839244,0.2135788,0.18335722,-0.120276146
lymphography#39,-0.22497472,-0.47440317,-0.22576612,0.27325928,-0.54030657,-0.20746803,-0.3907442,-0.11438448,0.25253555,-0.28332728,0.3209779,0.25455698,-0.21609354,0.22989944,0.36044326,0.6564819,0.16391033,0.3552844,-0.15784161,-0.2007089,-0.11953796,-0.12713233,-0.41269493,-0.35496175,0.4297903,0.31395936,-0.083653934,-0.2219609,-0.1764455,-0.26858908,-0.41034088,0.025763247,-0.078098565,0.22363761,0.022113176,-0.1811406,0.44556853,0.5122218,0.21373138,-0.23352353
lymphography#4,-0.25160834,-0.19389334,-0.17068288,0.3675484,-0.29166773,-0.25427553,-0.44868675,-0.20414208,0.6237122,-0.29121107,0.6384372,0.29947534,-0.2704696,0.1622838,0.16894895,0.5240893,0.007258964,0.49421322,0.030116769,-0.13805744,-0.38256916,-0.047561947,-0.643259,-0.33212513,0.12346127,0.3028951,0.17188098,-0.32146645,-0.25981447,-0.3191706,-0.13151607,-0.01197461,0.06924733,0.2572397,0.3780743,-0.09366453,0.3631354,0.28345683,0.16249508,-0.11836237
lymphography#40,-0.16446821,-0.39565757,-0.21052065,0.25278914,-0.35216355,-0.49496794,-0.20124058,0.20025182,0.33040053,0.05571655,0.11528793,0.1959036,-0.20384136,0.31417197,0.31396446,0.558128,0.07384755,0.26992476,-0.30554396,-0.096828714,-0.15229714,-0.116716616,-0.19094285,-0.4360018,0.50864387,0.21085341,-0.15785539,-0.30878022,-0.09421092,-0.6288525,-0.38616195,-0.23791309,0.0587765,0.0038572543,0.026122194,-0.405588,0.44540742,0.5368899,0.17180187,-0.14593174
lymphography#41,-0.03674219,-0.5289479,-0.09518181,0.10773183,-0.5471221,-0.45667204,-0.35667357,-0.02761203,0.54306674,-0.19466123,0.11693711,-0.2952723,-0.38956457,0.16292575,0.4151329,0.60878974,0.20275253,0.5717521,-0.18929909,-0.06497244,-0.40706506,-0.0027137152,-0.30782297,-0.1364938,0.43504956,0.28955513,-0.014237917,-0.35173687,-0.04693984,-0.4729612,-0.1596812,-0.18392158,0.07361564,0.013745494,-0.11773102,-0.26571348,0.18572642,0.5015286,0.32817808,0.11132238
lymphography#42,-0.31148207,-0.32157278,-0.25466293,0.34092987,-0.40414634,-0.23755825,-0.20733133,-0.17016332,0.47091308,-0.12071022,-0.07350726,-0.02630628,-0.40503922,0.42123637,0.29100558,0.6733563,0.29332742,0.51242656,-0.39089182,-0.035818886,-0.3560173,0.0833515,-0.14349419,-0.2882663,0.32218271,0.24103054,0.10083136,-0.19345342,-0.25626412,-0.566752,-0.4256163,-0.34281185,0.13854022,0.2215233,0.7774009,-0.029778514,0.3978286,0.55417883,0.21905735,-0.01350176
lymphography#43,0.13671513,-0.3569533,-0.27898568,0.1491057,-0.33844844,0.006125192,-0.22201937,-0.096518695,0.3756376,-0.1710012,0.4364981,-0.022016734,-0.52064955,0.21262962,0.26382074,0.70479953,0.2894585,0.42081204,-0.13860694,-0.06021912,-0.27775598,0.10684579,-0.6170602,-0.13555463,0.46026003,0.14952058,0.0192611,-0.31958506,-0.13201332,-0.48223996,-0.27479878,-0.08522601,0.071507104,-0.04830135,-0.004912532,-0.2624819,0.18305327,0.46979633,0.24797349,-0.14558211
lymphography#44,-0.09915491,-0.4201526,-0.3033292,0.24750659,-0.3945812,-0.16611266,-0.5782199,-0.22071956,0.62364036,-0.11772697,0.012653308,0.10766356,-0.16766624,0.39928588,0.20295581,0.40665263,-0.0108323945,0.49331984,-0.50039184,-0.2670403,-0.49853396,-0.07241054,-0.40366152,-0.09679429,0.2680453,0.031156575,-0.026026415,-0.044540882,-0.20039716,-0.41062662,-0.40935916,0.13323942,-0.13912,0.08912583,-0.18074921,-0.17727627,0.15897888,0.4130631,0.2126698,-0.3246119
lymphography#45,-0.09510682,-0.1822291,-0.28722405,0.37766778,-0.46581173,-0.12883966,-0.16825053,-0.07336648,0.561536,0.015471123,0.1635764,0.20820726,-0.38471317,0.43796748,0.17997321,0.6489258,0.4036524,0.25877535,-0.22314456,-0.076526895,-0.55950946,-0.014319243,-0.46169126,-0.06389592,0.40684065,0.011886067,0.2764038,-0.44119915,-0.17016189,-0.50630707,-0.29689237,-0.5259139,0.0592209,-0.13908222,0.5654577,-0.011967783,0.50768065,0.47137323,-0.012449086,0.010955735
lymphography#46,-0.08034106,-0.24886152,-0.028145434,0.20880337,-0.7942921,-0.549233,-0.2764814,-0.046970394,0.5497644,0.0234389,0.22586188,-0.11131033,-0.46295744,0.3835469,0.2689654,0.68573236,0.008644921,0.30923238,-0.3857339,-0.17629606,-0.18738228,-0.09477989,-0.17776886,-0.4375315,0.23498952,0.19477591,-0.20288745,-0.10159306,-0.21696666,-0.56211036,-0.09181586,-0.24526101,-0.22511292,0.35258526,0.03977978,-0.19916187,0.22935499,0.169619,0.1759376,-0.30107567
lymphography#47,-0.0003717995,-0.1944972,-0.08561998,0.18946648,-0.49366584,-0.3358146,-0.18556376,-0.089757636,0.53692114,-0.26807305,-0.1215887,-0.06844344,-0.42494214,0.41297123,0.438428,0.62172526,0.13991843,0.5396823,-0.37181967,-0.16225325,-0.423369,-0.22903399,-0.52344686,-0.0983505,0.40067023,0.10038039,0.24818622,-0.3397471,-0.11325074,-0.23785509,-0.38392493,-0.22302608,-0.15398045,-0.122458085,0.101797275,-0.15321657,0.06769545,0.24762824,0.11146288,-0.04642774
lymphography#48,-0.12758188,-0.13257897,-0.28298947,0.046497148,-0.33512968,-0.44278485,-0.34476718,-0.13162468,0.39159527,0.014502772,0.39044943,0.24036616,-0.41407248,0.4916049,0.40205926,0.5332979,0.27034646,0.58105475,-0.31307453,0.11595296,-0.51848453,0.16208912,-0.36487114,-0.642191,0.4100137,0.1301385,-0.16469541,-0.5221381,-0.21168354,-0.21192826,-0.08881384,-0.014250488,-0.21196412,0.12158426,-0.0119999945,-0.015513259,0.5191902,0.5654468,-0.08904439,-0.36890027
lymphography#49,-0.045217924,-0.3651548,-0.034257177,0.2269362,-0.4549533,-0.033629503,-0.2024393,-0.13542669,0.44795567,-0.25639293,0.41250813,0.15879446,-0.27935326,0.13993418,0.21181218,0.67452246,0.07244022,0.31842995,-0.35740143,-0.17100964,-0.24754119,-0.18023023,-0.5422357,-0.26168352,0.2122921,-0.014138645,0.28842092,-0.38079605,-0.0924464,-0.49626723,-0.3468483,0.076028675,-0.25824594,0.02132557,-0.053264655,-0.32822186,0.07650421,0.27370644,0.22035977,0.13834211
lymphography#5,-0.2916715,-0.31806684,-0.1860583,0.013385378,-0.066792466,-0.35312247,-0.40895957,-0.13909,0.36088353,-0.18217488,0.33913162,0.18746798,-0.51448894,0.15374272,0.29036653,0.4120915,0.0061306674,0.1515263,-0.31295684,-0.18183151,-0.43567103,-0.07657736,-0.28646213,-0.16152768,0.37466136,0.2734507,0.19819236,-0.5317004,-0.13008368,-0.47589704,-0.18927875,-0.36150646,-0.18244894,-0.13226789,-0.21450712,-0.25184175,0.4943833,0.40840864,0.09307388,-0.26447248
lymphography#50,-0.09716228,-0.2014844,-0.04794254,0.31523976,-0.46806124,-0.36717567,-0.22254509,0.10585594,0.57041013,-0.22632922,0.0025276204,0.112406895,-0.33821148,0.3624079,0.30072138,0.46285465,-0.040980507,0.19450405,-0.5543237,-0.15542354,-0.24617411,0.011898648,-0.48645023,-0.2670464,0.5142078,0.129733,-0.07533313,-0.38590297,-0.20212056,-0.41298407,-0.39706853,-0.0031487094,-0.16239461,0.13311717,-0.07637044,-0.14458957,0.25493282,0.42732552,0.07944994,0.05529523
lymphography#51,-0.10540204,-0.19789608,-0.115481816,0.2629164,-0.5915485,-0.532854,-0.18099606,-0.20193948,0.17604934,-0.20129962,0.49511763,0.058493555,-0.5879565,0.40919912,0.37845764,0.69628376,0.28165665,0.14565048,-0.2922451,-0.10317505,-0.27209154,-0.045814697,-0.2267077,-0.5005516,0.13255703,0.24525627,0.052874,-0.24913318,-0.051265225,-0.34386054,-0.14709243,-0.19085382,0.069308974,0.4000089,0.035065986,-0.41009578,0.3383207,0.20213434,0.30795088,-0.3070349
lymphography#52,0.08375929,-0.29171228,-0.31534865,0.10551565,-0.23713078,-0.41354367,-0.30454147,0.026672332,0.5543198,-0.18188281,0.3457926,0.13851118,-0.45781738,0.46333876,0.108601704,0.4250103,0.19209987,0.5524669,-0.33318824,-0.12461086,-0.14541373,-0.18227068,-0.3906892,-0.16486642,0.3073064,0.23779628,0.13747573,-0.326079,-0.2078729,-0.3687845,0.024547191,-0.27879402,-0.034924936,0.24212664,0.33402717,-0.06994834,0.11291403,0.3946884,0.17229061,-0.12956963
lymphography#53,-0.17738515,-0.22819418,-0.03671457,0.20522249,-0.42321834,-0.27596942,-0.21476655,-0.35578358,0.5121169,-0.2174598,0.2188657,0.015330008,-0.26739347,0.19272742,0.2851903,0.4518903,-0.05312027,0.21050434,-0.3829874,-0.25490305,-0.5317845,-0.096003406,-0.36169192,-0.23569474,0.234644,0.08139319,0.22411926,-0.6480988,-0.1076189,-0.58163655,-0.21628511,-0.0032399204,-0.02861374,-0.068427734,-0.129179,-0.20756926,0.17792237,0.47072694,0.17973371,-0.16842455
lymphography#54,-0.14608826,-0.4237546,0.034334734,0.11077842,-0.34720176,-0.12199321,-0.5272216,-0.28118503,0.71220535,-0.17457521,0.44396302,-0.14419787,-0.4943283,0.26468575,0.31394383,0.43191752,0.27716056,0.33053508,-0.25411457,-0.07617977,-0.26831207,0.2387318,-0.49550235,-0.35155416,0.19828926,0.37328282,0.1716204,-0.39721715,-0.3428445,-0.109595954,-0.084043175,0.010666598,0.061645757,-0.15009873,0.031252306,-0.4236808,0.35264495,0.37157026,-0.10990628,-0.0376945
lymphography#55,-0.23881155,-0.24032745,0.02024339,0.28855363,-0.40230766,-0.18670672,-0.32422456,-0.13906981,0.53039104,-0.10592111,0.11294651,-0.47729087,-0.4690612,0.24058315,0.23784405,0.7026306,0.20132968,0.47547624,-0.40487915,-0.07265596,-0.4300816,0.04317302,-0.38165796,-0.3119053,0.41369125,0.11264637,0.23923133,-0.32468966,-0.19444804,-0.57011324,-0.441027,-0.10363704,0.05454994,-0.15278527,-0.060511418,-0.16781957,0.33056155,0.26402146,0.24264339,0.08062827
lymphography#56,-0.029304646,-0.14334105,-0.18159343,0.15511951,-0.22353712,-0.4932739,-0.3776909,0.038287222,0.3317872,-0.29215613,0.083721064,-0.09201184,-0.16697322,0.26470265,0.5997199,0.78344816,0.01817108,0.4417265,-0.25603127,-0.19803561,-0.5875955,0.19002412,-0.37251812,-0.20775205,0.31378233,0.25245985,0.06028654,-0.34859553,-0.05753998,-0.45403233,-0.23329127,0.0048523215,-0.0819686,0.3934664,-0.22814345,-0.1848001,-0.0066776443,0.52500343,0.21586272,-0.18967663
lymphography#57,-0.058338344,-0.19092512,-0.015980754,0.29716128,-0.5720595,-0.39304405,-0.512109,-0.07771777,0.38792855,-0.3512699,-0.22076362,0.30457875,-0.32403457,0.37380132,0.43787536,0.4250774,0.34143987,0.3349583,-0.25054798,-0.30116576,-0.2871122,0.2033864,-0.21830805,-0.12055732,0.5697928,0.19700058,-0.28080267,-0.4550819,-0.08711418,-0.27338207,-0.46994126,-0.2854196,-0.11115593,0.22474584,0.15173201,-0.022356713,0.5864751,0.15871358,0.2713323,-0.14864516
lymphography#58,-0.18459113,-0.5052782,-0.21924126,0.32212663,-0.6316681,-0.48984286,-0.5238652,-0.18139021,0.405746,-0.23210339,-0.09523328,0.35158178,-0.20836493,0.28945023,0.15575068,0.49672097,0.1797261,0.58539265,-0.40132895,-0.1819345,-0.34602395,-0.08400141,-0.17434351,-0.05553396,0.29099768,0.07343433,0.21138395,-0.17274019,-0.019148078,-0.48220333,-0.4390188,-0.33073536,-0.15542753,0.34747046,-0.12989354,-0.20607807,0.47200635,0.45433584,-0.18023849,-0.08436693
lymphography#59,-0.069375455,-0.17877977,-0.35862112,0.27782303,-0.2846013,-0.3482883,-0.22578602,0.027205158,0.42373368,-0.2928919,0.41398975,0.3925364,-0.07411838,0.15719645,0.22258183,0.40524763,0.29630452,0.4168127,-0.4323024,-0.27566338,-0.6453584,-0.12287821,-0.20862709,-0.26251596,0.4209023,0.26897275,0.19441672,-0.20410135,-0.1935739,-0.46616095,-0.49850282,-0.4431917,-0.13677005,0.22646892,0.6171011,-0.032023776,0.28626078,0.786988,-0.105359726,-0.21454123
lymphography#6,-0.404693,-0.41714445,-0.05463682,0.3368753,-0.5800086,-0.4413331,-0.49969503,-0.09385111,0.4614833,-0.43301743,-0.19121057,0.1264175,-0.14238182,0.32916847,0.48195854,0.3864995,0.14483537,0.58102906,-0.013891169,-0.21259917,-0.4932903,-0.16999611,-0.45572233,-0.17957155,0.1381859,-0.06535116,-0.0051639946,-0.31487256,-0.17402722,-0.28104597,-0.30563802,0.049802106,-0.13137907,0.04978013,-0.041718733,-0.25753286,0.4142648,0.45070046,0.33100194,0.027984781
lymphography#60,0.016884394,-0.3061717,-0.30473793,0.35453245,-0.7240604,-0.2629675,-0.3851942,-0.044615958,0.47350988,-0.292077,0.3098926,0.12906595,-0.30999044,0.12009282,0.41155624,0.5850949,0.46869254,0.48142025,-0.3932371,-0.150959,-0.123204194,0.09758319,-0.44742438,-0.24237467,0.46177548,0.11902583,-0.00462599,-0.19174902,-0.17177811,-0.17808314,-0.37743172,0.14072022,-0.10021501,0.036673535,0.21638878,-0.111892544,0.16608348,0.32677,0.07332199,-0.046292838
lymphography#61,-0.3549215,-0.23351873,-0.32664087,0.11334138,-0.26207572,-0.4574225,-0.31281084,0.14811711,0.26092592,-0.3626801,0.19912569,0.41860998,-0.28356528,0.38231546,0.34598595,0.6423888,0.21191019,0.55565417,-0.13305181,-0.23225081,-0.47208354,-0.122482866,-0.26747525,-0.2205445,0.34672186,0.19628923,-0.14711477,-0.11302158,-0.25681838,-0.41834474,-0.36111417,-0.2139225,0.18561536,0.5339756,0.45842996,-0.12471077,0.25423384,0.44195312,0.14389335,-0.4082802
lymphography#62,-0.25821468,-0.20813304,-0.04121746,0.23526789,-0.4894544,-0.109303124,-0.30020833,-0.07660771,0.5054853,-0.3098353,-0.29827312,-0.053411845,-0.51126593,0.29827887,0.26966497,0.72622764,0.34721106,0.34462506,-0.31551686,-0.14661022,-0.34318984,0.099142976,-0.37573615,-0.14668722,0.31928903,0.1063204,0.26632267,-0.19252177,-0.18220663,-0.34782198,-0.4579437,0.05453865,0.093012825,0.08518905,0.050693452,-0.2807645,0.22530021,0.24254933,0.19965552,-0.3088904
lymphography#63,-0.25314495,-0.2739379,-0.2911515,0.025365645,0.07955365,-0.4973396,-0.48319322,-0.04334362,0.5069546,-0.08317168,0.4247478,0.44874346,-0.6080323,0.29835922,0.060836673,0.46556106,-0.02969837,0.3009655,-0.11064686,-0.0069376365,-0.4502482,-0.055556893,-0.4898679,-0.1886928,0.39187723,0.1573103,-0.059711535,-0.22811347,-0.23833965,-0.5125086,-0.16919205,-0.1833655,0.17892122,0.24025923,0.16232327,0.09152504,0.16189884,0.6567304,0.21061781,-0.07684247
lymphography#64,0.07274999,-0.5486773,-0.24241842,0.1717044,-0.35944694,-0.39571613,-0.43807024,-0.07382989,0.3789306,0.039546613,0.5902857,-0.17630336,-0.5664224,0.5749358,0.07441317,0.6546717,-0.01682052,0.41092426,-0.32394052,-0.14102332,-0.29249907,0.08264507,-0.14988633,-0.35316977,0.15000612,-0.12828672,0.24717087,-0.23814158,-0.13077256,-0.5880375,-0.13037798,-0.11692878,-0.1711461,0.16912009,-0.18425784,-0.29705638,0.46634814,0.30231705,-0.23718333,-0.19436681
lymphography#65,-0.23699197,-0.4070734,-0.041755684,0.18405108,-0.22867887,-0.3621187,-0.5586593,-0.18843165,0.32985112,-0.2934635,0.15405172,-0.16753837,-0.4103848,0.4177067,0.330722,0.42150515,-4.659011e-05,0.23697536,-0.43277216,-0.21627116,-0.2588673,0.136346,-0.2458985,-0.20827623,0.35895675,0.16264847,0.046523947,-0.4031119,-0.19229102,-0.62766594,-0.23723736,0.15801762,-0.20076522,-0.048157904,-0.19813895,-0.35084236,0.038428478,0.5533268,0.2595746,-0.16149889
lymphography#66,-0.38373074,-0.26855603,-0.18447046,0.08348224,-0.14374942,-0.19936961,-0.36305544,-0.11373636,0.34605157,-0.48230407,0.32609102,0.49690682,-0.39366606,0.4369395,0.4894254,0.4590198,0.28395218,0.60748684,-0.3032579,-0.049031973,-0.53900814,-0.11340584,-0.19794376,-0.19555935,0.2866255,0.13378717,-0.085747264,-0.30666772,-0.3572181,-0.4249044,-0.37911806,-0.022638848,0.17881604,0.4856411,0.14712615,-0.16841474,0.048664097,0.47286168,0.23255551,-0.17812504
lymphography#67,-0.2794802,-0.40412605,-0.049400155,0.13694972,-0.17329404,-0.5257465,-0.44856915,-0.04487725,0.4263604,-0.31982663,0.16720055,0.42845392,-0.37062678,0.100978486,0.36854404,0.18670993,0.0019967926,0.2606577,-0.21099028,-0.34763247,-0.35352248,-0.122770235,-0.28359473,-0.1777087,0.2796408,0.46292624,-0.20023447,-0.2437078,-0.23909709,-0.4225843,-0.38677147,-0.13311598,-0.1958968,0.1235645,0.4843532,-0.2294934,0.25048274,0.40323833,0.21698883,-0.04761882
lymphography#68,-0.07344308,-0.19027299,-0.2901241,0.29463544,-0.41913497,-0.13294448,-0.39361465,-0.12794647,0.5783989,-0.30767483,0.21226765,0.10073862,-0.25635052,0.32567734,0.09396168,0.4610677,0.30235878,0.16048117,-0.46079016,-0.2396338,-0.47182214,0.10141286,-0.56653905,-0.118560836,0.3668892,0.1877154,0.25756457,-0.2141688,-0.25282875,-0.2407156,-0.45803905,0.2591159,-0.1470369,-0.042749725,0.0032210064,-0.14785849,0.37905675,0.4051571,0.15916766,-0.31427968
lymphography#69,-0.25198257,-0.5512515,-0.0061655967,0.2609484,-0.49476716,-0.59386665,-0.26426542,-0.14050837,0.42080015,-0.29346228,0.15751658,-0.21599609,-0.25166863,0.37559333,0.4895469,0.62203074,-0.010444062,0.17152922,-0.37817484,-0.17889813,-0.2154372,0.03732235,-0.2922827,-0.43114692,0.15393665,0.04891088,0.16702154,-0.30911374,-0.17245911,-0.36174917,-0.19649063,0.021315215,-0.13123874,-0.012286122,-0.30691937,0.047938276,0.33159527,0.085055076,0.3119368,-0.27318767
lymphography#7,0.051134814,-0.5182251,-0.13645516,0.21385583,-0.5038992,-0.41309774,-0.36866674,-0.030147329,0.5572535,-0.07330848,0.13283437,-0.3112535,-0.3718272,0.56035775,0.321333,0.60194105,-0.019447539,0.32214966,-0.486972,-0.1350331,-0.16622473,-0.15544541,-0.24838242,-0.4646787,0.12609977,0.27738926,0.07599949,-0.33434093,-0.052205127,-0.2057353,-0.21085615,0.0008777866,-0.16328153,0.009347648,-0.049351893,-0.42726868,0.16945648,0.46565878,0.0050251535,-0.072992444
lymphography#70,-0.2640462,-0.30335924,-0.028782304,0.47223315,-0.38513836,-0.37348616,-0.34725213,-0.09248729,0.54319805,-0.38906288,-0.23829815,0.07459656,-0.12013256,0.40221187,0.40284577,0.5804902,0.2371958,0.47441033,-0.092714444,-0.21020398,-0.13835096,0.034510482,-0.3151814,-0.31684914,0.2715185,0.29710007,-0.3162329,-0.27765554,-0.24163656,-0.3589798,-0.44408578,-0.2843623,-0.1328663,0.2515686,0.2529711,-0.12536468,0.46930388,0.5412319,0.27756327,-0.3251212
lymphography#71,-0.13931385,-0.38362166,-0.32504213,0.24285196,-0.33923203,-0.18823905,-0.54883033,-0.2359388,0.45828623,-0.4268374,0.3188289,-0.009740711,-0.38094565,0.37587363,0.2959356,0.6418415,0.27784923,0.38479143,-0.030347971,-0.039810296,-0.43094522,-0.032017052,-0.46721607,-0.24637824,0.3112097,0.17188959,0.22665513,-0.28747025,-0.27596864,-0.3146527,-0.27683747,0.061659854,-0.06383539,0.0357273,0.08259864,-0.28446853,0.16698349,0.5773507,0.11647904,-0.17511323
lymphography#72,0.019031476,-0.47970548,-0.073779784,0.06508817,-0.33183843,-0.20288931,-0.21928716,-0.038008034,0.4219452,0.051284816,0.23149541,0.37572366,-0.43545777,0.259059,0.14670348,0.5171204,0.11753024,0.23059203,-0.19021492,-0.17000622,-0.13555415,-0.18888229,-0.35002944,-0.3010928,0.34345472,0.15945739,-0.018565375,-0.5640579,0.13791047,-0.58544964,-0.16494188,-0.30624616,-0.17123966,0.3646898,0.116032,-0.15209731,0.34513366,0.51310015,0.18403773,-0.2985064
lymphography#73,-0.11024068,-0.38597593,-0.40079936,0.25632986,-0.081353016,-0.36487922,-0.4868719,-0.32025674,0.18215086,-0.1851115,0.43357676,0.201683,-0.3280834,0.36304235,0.36643273,0.45412493,0.36851403,0.52053636,-0.47274777,-0.2564927,-0.4999946,-0.050924055,-0.30604511,-0.30588216,0.1531218,0.13528283,0.18479298,-0.12207241,-0.33595088,-0.44037607,-0.061649937,0.0076338323,-0.123265445,0.34385613,-0.23302115,-0.25015914,0.28118894,0.2624198,0.047476675,-0.12728687
lymphography#74,-0.22604829,-0.39806724,-0.14336537,0.14536305,0.28195724,-0.38810351,-0.53304195,-0.09684819,0.5488113,-0.18645766,0.36364773,0.5201288,-0.46923432,0.23741108,0.2787705,0.31010234,0.049645387,0.33892065,-0.13182619,-0.09652076,-0.52433187,-0.30524248,-0.48456588,-0.1811027,0.2898512,0.1324176,0.010137681,-0.14848788,-0.2695773,-0.35250303,-0.2126228,-0.08215767,-0.036456246,0.14071038,0.31093997,-0.28661615,0.10176795,0.8287028,0.34878665,-0.11959515
lymphography#75,0.017604884,-0.4685141,-0.02925745,0.20869495,-0.6846375,-0.5382232,-0.24902874,0.010615328,0.4010377,-0.0046214373,0.34263247,-0.23579217,-0.45664752,0.36313552,0.22617507,0.7501884,0.34499615,0.32886782,-0.25963733,-0.2539649,-0.23669714,0.20269342,-0.27397645,-0.30856845,0.15252261,0.43147087,0.0489192,-0.414444,-0.11798408,-0.4578279,0.071290195,-0.30590767,0.109028734,0.10804206,0.025940606,-0.26389527,0.34316388,-0.0064408607,0.16268714,-0.11868886
lymphography#76,0.013919952,-0.2487306,-0.22765616,0.2997556,-0.3623579,-0.18588033,-0.4454433,-0.07866236,0.5608573,-0.25443968,0.17016235,0.16108166,-0.38809004,0.25995204,0.18511538,0.37965935,0.30796245,0.39186192,-0.5808788,0.004072644,-0.47319514,0.010066471,-0.41143987,-0.3442788,0.41543716,0.15651582,-0.109068386,-0.2487439,-0.16231272,-0.20992567,-0.22316913,0.27633357,-0.14230947,0.1488965,-0.076118894,-0.0008594406,0.15261698,0.42407194,0.03858383,-0.22836423
lymphography#77,-0.04088017,-0.45662832,-0.14212456,0.19394363,-0.3484624,-0.25372055,-0.031182522,0.16736037,0.5496278,-0.3733577,0.10881739,0.06090858,-0.24780805,0.2360765,0.28469557,0.65903205,0.0563162,0.37033376,-0.5537186,-0.14709945,-0.336654,-0.028829012,-0.30910408,-0.26706514,0.4841975,-0.010576407,0.1433101,-0.22487283,-0.12935424,-0.4892344,-0.24736261,-0.037329786,-0.09947203,0.2584231,-0.18316363,-0.14787613,0.6658342,0.24134582,0.1788746,-0.291229
lymphography#78,-0.22668417,-0.4354648,-0.045580644,0.10933998,-0.11018761,-0.2516677,-0.4507101,-0.25468704,0.5623768,-0.13871448,0.4761392,0.16917819,-0.56214917,0.32747772,0.3741926,0.6763708,0.12096551,0.39674568,-0.23568802,-0.16303529,-0.30577922,-0.19855598,-0.33737978,-0.24117494,0.13004936,0.23458381,0.30265698,-0.31071535,-0.09541274,-0.17653747,-0.089647785,-0.13197365,-0.19077457,-0.15118697,-0.027130812,-0.15898204,0.06564071,0.45011935,0.31716162,0.028162764
lymphography#79,-0.037906967,-0.19162612,-0.132077,0.1776918,-0.13644025,-0.4917114,-0.376713,0.031226963,0.23185709,-0.20100427,0.39246324,-0.039621,-0.451808,0.46755016,0.33275795,0.89751405,0.2525863,0.044966802,-0.2722015,-0.4722739,-0.4336919,-0.23394427,-0.2542492,-0.13330252,0.17738257,0.2710737,0.18861558,-0.3685454,-0.0017954741,-0.19256458,-0.19099545,-0.19430088,-0.2643163,0.45613566,-0.16275829,-0.30196545,0.22152072,0.27433968,-0.07441238,-0.112497084
lymphography#8,0.12675165,-0.4985522,-0.09853348,0.200025,-0.56291753,-0.4064422,-0.32292408,0.10003147,0.58829045,-0.15243888,-0.16308425,-0.0231775,-0.54179776,0.51661134,0.21241046,0.68273306,0.3578581,0.42293587,-0.086406164,-0.124304034,-0.28998926,-0.017111257,-0.3315602,-0.23895846,0.10176776,-0.101281345,0.18652712,-0.44797477,-0.07309811,-0.37121755,-0.31273046,-0.30098262,0.02350453,0.103622004,0.3651428,-0.17883798,0.19439885,0.16032325,0.05360788,-0.13419653
lymphography#80,0.05619647,-0.13911112,-0.3533122,0.1936371,-0.2909886,-0.2678818,-0.39300704,-0.110406004,0.6282377,-0.17739834,0.6746603,0.37793195,-0.3447102,0.57603574,0.22436936,0.43073618,0.16379735,0.4471411,-0.29951888,-0.12589246,-0.17926587,-0.15798688,-0.3241147,-0.110222526,0.4349182,0.30722284,0.00864369,-0.22618525,-0.07236589,-0.37450007,-0.09622895,-0.09031711,0.056159057,0.2821517,0.2516433,0.049579106,0.05780471,0.59021986,0.22321975,-0.4430311
lymphography#81,0.1846112,-0.3164755,-0.28953546,0.2581591,-0.20110911,-0.327875,-0.54099405,0.014105179,0.5730576,0.00024419255,0.27654347,0.29638866,-0.42298853,0.19709668,0.36304817,0.42825323,0.270439,0.48153076,-0.18293129,-0.13452034,-0.08846003,-0.052426074,-0.52119225,-0.15855925,0.49135813,0.21534511,-0.22341713,-0.16626908,-0.28727683,-0.39017704,-0.3439456,0.044484172,-0.12004876,0.24589853,0.18431947,-0.22795059,0.17418267,0.462332,0.007636058,-0.04730853
lymphography#82,0.01769863,-0.55669755,-0.30328643,0.17928323,0.16719256,-0.114369884,-0.44741923,-0.09425769,0.3029094,-0.25660598,0.39161533,-0.120502375,-0.36823875,0.3573011,0.38935927,0.6618308,-0.0053318143,0.080170065,-0.2628551,-0.14762181,-0.5428669,-0.15600011,-0.33042103,-0.4086189,0.34231722,0.053762328,0.07878018,-0.20187335,-0.3383905,-0.5143903,-0.447877,0.12403461,-0.09610322,0.28007808,-0.038977277,-0.25959608,0.45208862,0.29576084,-0.08013615,-0.16648589
lymphography#83,0.0005785778,-0.2724063,-0.116157435,0.17426719,-0.55088764,-0.47291228,-0.21452051,-0.116521664,0.4455149,-0.14770187,0.44954464,0.16001448,-0.35065138,0.39757657,0.40631214,0.4230087,0.31810364,0.37771907,-0.113150656,-0.21436311,-0.14759149,-0.0064219614,-0.19619457,-0.2540002,0.44715205,0.43579748,-0.30855983,-0.3332696,-0.074305244,-0.3177078,-0.2172344,0.003448101,-0.19627403,0.41328663,0.25835383,-0.19385521,0.34636822,0.53412867,0.3783865,-0.37303975
lymphography#84,-0.18719697,-0.15887515,-0.04906362,0.28112343,-0.60109824,-0.14356558,-0.3229803,-0.17575674,0.56486905,-0.4687117,0.24441041,0.3275761,-0.3148299,0.09893672,0.4404502,0.22416134,0.27539474,0.38276005,-0.3929161,-0.18565594,-0.28527653,0.08874121,-0.41114125,-0.2692694,0.070396885,0.3098976,0.19947548,-0.21662894,-0.2058902,-0.4429447,-0.41898176,0.058470987,0.04343166,0.43586797,0.55552495,-0.27502114,0.18786396,0.6196545,0.097760536,-0.06453979
lymphography#85,-0.30219153,-0.49563035,-0.21316749,0.31341705,-0.34999162,-0.2615379,-0.45231393,-0.022803802,0.30132526,-0.22340895,0.5555302,0.66161615,-0.41764984,0.068641596,0.12013393,0.46150678,0.18455783,0.21014233,-0.21537137,-0.1359931,-0.3789375,-0.007189063,-0.18874592,-0.3342103,0.17015773,0.1675903,-0.35508907,-0.06505126,-0.2820453,-0.43041265,-0.33257473,-0.16699895,-0.12367438,0.4615733,0.3859524,-0.21102197,0.41670793,0.2750159,0.13030568,0.06039871
lymphography#86,-0.3481174,-0.22257821,0.0013688344,0.1759363,-0.57524085,-0.56464666,-0.34544778,-0.2704412,0.45211008,-0.14002822,-0.16198735,-0.18001825,-0.44825563,0.25684324,0.28666884,0.45406395,0.26646477,0.39992893,-0.41155985,0.038813163,-0.28637472,0.19256882,-0.32075217,-0.32702395,0.22640677,0.2894022,-0.14353906,-0.48804268,-0.100763164,-0.32354385,-0.3902713,-0.3890838,-0.015854107,0.35800025,0.23615864,-0.32609773,0.3197227,0.5616007,-0.05877672,0.030592598
lymphography#87,-0.07415743,-0.47883317,0.005923873,0.29438716,-0.5974475,-0.2907943,-0.55845815,-0.03835535,0.43784747,-0.20256157,0.29345423,-0.06686252,-0.39042136,0.32169732,0.3643803,0.30138338,-0.08049646,0.39196026,-0.42101896,-0.20948356,-0.24553736,-0.2547869,-0.3507439,-0.33098966,0.13811249,0.11920498,0.024002274,-0.32383117,-0.20750521,-0.5675242,-0.3167408,-0.01846806,-0.18927029,-0.04406758,-0.14477016,-0.2384795,0.20476386,0.082728855,0.15957263,0.012945963
lymphography#88,-0.016672863,-0.38768142,-0.14673929,0.11937972,-0.4586478,-0.43370596,-0.18508191,-0.13857152,0.3528615,-0.05568991,-0.17786188,-0.24513084,-0.3500927,0.43149766,0.38332304,0.54887724,0.008648449,0.510462,-0.34280807,-0.14665477,-0.23494855,-0.03434558,-0.25328988,-0.13431984,0.34172353,0.276809,-0.011084714,-0.43162698,-0.013556191,-0.33856645,-0.47082213,-0.34396443,-0.11214058,0.31324077,0.0325397,-0.48791075,0.22492188,0.6080215,0.12453502,-0.07358934
lymphography#89,0.11608193,-0.35175255,-0.21843246,0.29068804,-0.4609708,-0.31243742,-0.5201255,-0.0764672,0.51376253,0.021417107,0.35075554,0.27453718,-0.3776938,0.24100183,0.29340562,0.40089852,0.2829733,0.34550744,-0.27620247,-0.22065428,-0.10444527,0.2641678,-0.46675324,-0.3400475,0.33416882,0.20949507,-0.292662,-0.34593672,-0.13838282,-0.21619691,-0.1990665,-0.036001857,-0.18904191,0.2594856,0.35289237,-0.27714062,0.41141427,0.6738729,0.0375545,-0.1183598
lymphography#9,0.20648465,-0.33973423,-0.18505248,0.28359896,-0.40360072,-0.31562436,-0.16686119,-0.113037504,0.5157461,0.036499966,-0.17243896,-0.023614004,-0.38177255,0.53409684,0.35656622,0.33674908,0.2710864,0.5132695,-0.21401264,-0.20064847,-0.19362591,-0.0045736725,-0.25045618,-0.17536739,0.4403955,0.4043392,-0.12706861,-0.31608397,-0.098977394,-0.4255293,-0.3432111,-0.053912178,-0.17441623,0.22030687,0.31797725,-0.17163168,0.37350938,0.5631815,0.35179424,-0.29098955
lymphography#90,0.13740318,-0.31445858,-0.0800372,0.04031027,-0.51660025,-0.25241852,-0.3968241,0.05122642,0.55335766,-0.15806748,-0.2762093,0.021346232,-0.3909135,0.5742412,0.37872532,0.67915016,0.2703769,0.26707527,-0.2096853,-0.24355468,-0.27471247,-0.16571318,-0.31368154,-0.2926834,0.20835288,0.32006052,-0.070846364,-0.49035296,0.010227723,-0.12697555,-0.3503149,-0.018246308,-0.19433366,0.31704757,0.08015304,-0.21991095,0.15976018,0.44363475,0.2175965,-0.45614845
lymphography#91,-0.12856255,-0.21438342,-0.23156875,0.14101812,-0.68303424,-0.18494354,-0.22054213,0.11821098,0.27925843,-0.07422609,0.140143,0.31417742,-0.40658957,0.319309,0.27063528,0.8605499,0.37302548,0.42905155,-0.55721676,-0.21402264,-0.32648745,0.16714962,-0.19101064,-0.12562352,0.23922502,0.20401692,0.12769826,-0.21158305,-0.02835075,-0.5231743,-0.290459,0.055531614,0.027013186,0.34363323,-0.050636973,-0.27316195,0.32382193,0.5547605,-0.026351204,-0.30418327
lymphography#92,0.035402097,-0.41154143,-0.0068779555,0.38996342,-0.26061985,-0.333287,-0.25753114,-0.0598238,0.39500305,-0.14802147,0.36834514,-0.4351083,-0.21990861,0.28213558,0.39474398,0.69081867,0.23360913,0.2977688,-0.48670617,-0.23854896,-0.24019095,0.16996942,-0.33820215,-0.38256216,0.18130615,0.22629412,0.42241296,-0.22407022,-0.17047699,-0.37289584,-0.11077807,-0.19317943,-0.2116625,0.5830954,-0.0007904153,-0.17302336,0.31128085,0.30807254,-0.13533017,-0.102745384
lymphography#93,-0.3676126,-0.17925964,-0.0928884,0.39042932,-0.5005285,-0.37198198,-0.5365372,0.18766548,0.6603129,-0.2568959,0.24818043,0.10252398,-0.47977716,0.4123631,0.22559282,0.5796365,0.20337479,0.34668133,-0.3427486,-0.16392495,-0.5118032,0.010491892,-0.5086907,-0.31665695,0.12723333,0.08932017,0.5137572,-0.048879877,-0.20907314,-0.31225184,-0.25547764,-0.13387237,-0.32397383,0.024947789,0.060259674,-0.060528018,0.027107274,0.02339404,0.28595403,-0.016538668
lymphography#94,-0.320294,-0.21250717,-0.21679431,0.10600705,-0.21004264,-0.43086344,-0.13857366,-0.09223762,0.17124008,-0.22417876,0.45989868,-0.1153277,-0.32703802,0.51542336,0.44709384,0.71760345,0.09680779,0.24350573,-0.35692352,-0.1981612,-0.26753408,0.044605155,-0.2139044,-0.34466475,0.3529815,0.3718795,0.13735244,-0.3816296,-0.09960038,-0.46846536,-0.113044545,-0.19319873,-0.21913858,0.28493184,-0.25601384,-0.06716036,0.31693798,0.43477866,0.25026515,-0.2901461
lymphography#95,-0.1441347,-0.22730348,-0.047809467,0.121457964,-0.389985,-0.37494224,-0.30652395,-0.24026515,0.53400004,-0.4450454,0.20128284,0.18784504,-0.2672663,0.13908404,0.33959952,0.40440762,-0.0231339,0.26673806,-0.09288979,-0.2130208,-0.31822208,0.1413754,-0.42477733,-0.28544718,0.47152412,0.43519536,0.07698353,-0.3235561,-0.13551779,-0.40253323,-0.41933018,-0.11015342,0.18293148,0.19250286,0.2989506,-0.19517201,0.28166062,0.56314653,0.19093235,-0.23048456
lymphography#96,0.015783835,-0.3234209,-0.1148985,0.13600327,-0.3495923,-0.5490618,-0.48360747,0.014749659,0.54904497,-0.03074491,0.19084676,0.1018983,-0.25080517,0.36319917,0.2844564,0.40632796,0.1352931,0.20317389,-0.35311228,-0.16580196,-0.29505485,-0.018243864,-0.47135293,-0.19226243,0.44927433,-0.06495787,-0.30961275,-0.37063208,-0.21563369,-0.2927433,-0.099436074,-0.3596864,-0.07017056,0.3262063,0.18703182,-0.091234505,0.35172263,0.6701675,0.21361937,-0.10349122
lymphography#97,0.12890173,-0.59549695,-0.3493527,0.41140607,-0.4908374,-0.21099363,-0.096354626,-0.18014413,0.48748994,-0.18358883,0.30631772,0.1576522,-0.31726348,0.44362175,0.3698805,0.64992493,-0.027632037,0.33517146,-0.18154888,-0.26127675,-0.29279634,0.075116895,-0.4448478,-0.092945054,0.44337338,0.041788638,0.30493188,-0.364452,-0.05779856,-0.45842016,-0.08400403,-0.32805392,-0.056303523,-0.09949989,-0.20399106,-0.20446107,0.16129379,0.24721448,0.25296944,-0.07899426
lymphography#98,0.1379146,-0.5527774,-0.12661579,0.3582186,-0.71332365,-0.27406058,-0.38180333,0.11114054,0.57355857,0.12343719,0.16106136,-0.0286876,-0.38667467,0.35266888,0.13097897,0.6613848,0.12597144,0.27723727,-0.32797307,-0.25547168,-0.08985156,0.048292153,-0.32804254,-0.41163093,0.14656344,0.23657973,0.08935974,-0.19634612,-0.24598846,-0.51631874,-0.33955517,0.0040545645,-0.12658015,0.17756659,0.27546516,-0.29253775,0.5666544,-0.0012423963,0.1091666,0.06417008
lymphography#99,0.09103462,-0.47268984,-0.07142988,0.14076631,-0.4563798,-0.19856457,-0.34100878,-0.23195826,0.39245683,-0.032903753,-0.12541439,4.3936583e-05,-0.3655568,0.39823905,0.3697246,0.49529594,0.098803304,0.26223814,-0.23880745,-0.29556736,-0.3432623,0.2760228,-0.28947377,-0.19497801,0.29128113,0.09368546,0.24696878,-0.45407408,-0.04328954,-0.44278294,-0.38685808,0.10701833,-0.020343455,-0.12368729,0.022312852,-0.24420592,-0.11662354,0.49264303,0.317722,-0.097368315
lymphography#Bl_of_lymph_c4,-0.1150399879423077,-0.24615502453846153,-0.1482328685192308,0.2851354276923077,-0.43873853653846157,-0.2323262321153846,-0.27655407338461535,-0.07112750273076925,0.4979582353846154,-0.20191195696153844,0.15564520955384611,0.09288518548076923,-0.36288772038461536,0.27863631961538465,0.27687887211538464,0.5718748576923077,0.2709474662692308,0.3943198273076923,-0.406805853846154,-0.16492864157692308,-0.3730551959230769,-0.00044282219230769304,-0.4213428767307692,-0.2003258149230769,0.36781008788461544,0.14407885669230772,0.1670669708284615,-0.2369016527692308,-0.1888395868076923,-0.3940232332307692,-0.3439792773076923,-0.08036966937307691,-0.08948661876923077,0.11416789315384615,0.19137392265769232,-0.17022795375384614,0.26726511592307695,0.40161339884615377,0.08878276610384615,-0.08475677429615384
lymphography#Bl_of_lymph_s5,-0.16062550142857143,-0.1875063097142857,-0.21859618714285714,0.30396949714285715,-0.37376698428571425,-0.30390154999999996,-0.22571068714285714,-0.07914292314285713,0.4929691742857143,-0.05177960157142857,0.1793831757142857,0.2137129835714286,-0.3629363528571429,0.30535857,0.25885599285714284,0.5300687728571428,0.33637625,0.3797837228571428,-0.3690932671428571,-0.1964802778571429,-0.5052948657142857,-0.13173708685714286,-0.3970709078571428,-0.12294433742857143,0.41789175999999995,0.12368240614285715,0.22855584557142855,-0.2139702992857143,-0.19788979528571432,-0.45104964571428574,-0.3495599557142857,-0.27734786499999997,-0.08920774757142858,0.10998582571428571,0.4091124002857143,-0.09791413942857141,0.33861335428571426,0.4719934985714286,-0.034979054999999995,-0.06956958042857143
lymphography#BlockOfAffere3,-0.08721621214146341,-0.35501639217073166,-0.15741935185975608,0.23445777299268297,-0.406092043792683,-0.2867840956707317,-0.3756721454146341,-0.09080403197317073,0.47176572695121943,-0.17556178575304876,0.15668883075487808,0.06773013079369512,-0.37576605378048783,0.3285034402317073,0.26216557785365846,0.5297815352439024,0.16676074368036586,0.3750396037195122,-0.3498606845731707,-0.1705621338292683,-0.3310536675609756,-0.0007552136451219506,-0.3696084420365854,-0.22904220354878044,0.3163663292560976,0.15527962919512195,0.09958706485292682,-0.28163511114634143,-0.1834183725,-0.41332877851219507,-0.3146359068414635,-0.06631921671463414,-0.11357547435365853,0.1280487408817073,0.08081584890609755,-0.22744701843414633,0.2509349865487805,0.3865338506670732,0.07629573961219512,-0.09958572477195123
lymphography#ByPass6,-0.1725781424027778,-0.2766949821666667,-0.1651738649888889,0.24326017944444445,-0.38325507766666667,-0.24386092350000002,-0.36835622583333333,-0.13365157041666664,0.4755983366666666,-0.21375762558333328,0.14621425513888886,0.18828326004166668,-0.38329907444444444,0.29567347774999997,0.2543735745833333,0.5273519283333333,0.28021284070833335,0.4072838572222222,-0.3868583747222222,-0.16429235208333334,-0.40649833733333335,-0.02011847877777778,-0.37511664125,-0.21284470466666666,0.29764244763888886,0.16497372369444444,0.1519851959527778,-0.24994908316666667,-0.19099695413888887,-0.37137224911111116,-0.3430757863055555,-0.08213404834999999,-0.06850138105555556,0.12259834857500002,0.1580391074611111,-0.20243080423888887,0.28112218308333337,0.42265637805555556,0.09227025088055556,-0.09841197433333333
lymphography#CIL12_Bean,-0.16159734366666667,-0.19492699166666663,-0.129304651,0.20873942833333334,-0.5361620800000001,-0.38496914500000007,-0.254107315,-0.14655490449999997,0.30329105333333334,-0.10944699833333334,0.2654201626666667,0.20208672478333334,-0.4671643083333333,0.3179766016666667,0.3608871,0.6446953933333334,0.39843375666666664,0.225289017,-0.3319640316666667,-0.2902385966666667,-0.43564087,-0.1227069395,-0.2633655925,-0.2889943033333333,0.15480786,0.1371997485,0.20097538883333332,-0.3291544516666667,0.0033814031500000023,-0.3938061216666667,-0.24397178166666666,-0.20462826533333334,-0.06260052266666667,0.36197440899999994,0.05866650099999999,-0.3001264083333333,0.33034879,0.30801515166666665,0.19064077999999998,-0.09011977533333333
lymphography#CIL12_Oval,-0.08621548259350652,-0.31549992171428565,-0.126918023,0.18158662264155845,-0.40887086063636363,-0.36325387254545455,-0.3164687678441558,-0.0560512101974026,0.4594580340259741,-0.1801618395064935,0.12685960565064935,0.07858062650757143,-0.38777460714285716,0.34745562987012985,0.26775429512987015,0.5749150607792207,0.1372812618712987,0.3567814250649351,-0.29288326255844155,-0.18481073901948053,-0.32023106858441563,0.00945458857012987,-0.329365031974026,-0.21250700355844154,0.3631057275324675,0.1899504500987013,0.004973106617402597,-0.35978901748051945,-0.13279221714285713,-0.4444042232467533,-0.2745665981428571,-0.14304044652870132,-0.07317773965896104,0.1847188784103896,0.04129495096363636,-0.1784286748311688,0.26068051232077916,0.41546932077662335,0.17108627170909094,-0.1583515726662338
lymphography#CIL12_Round,-0.12107980979384615,-0.38250522169230766,-0.16147637832615386,0.24700638803076924,-0.3598644131076923,-0.3037776626,-0.4378927653846154,-0.0986876019276923,0.46365523692307686,-0.2032562346576923,0.25126967663846156,0.13527160980769232,-0.35208127938461536,0.27791495836153846,0.28947652313846156,0.5050928143076923,0.16609137916461536,0.37333818023076926,-0.29078116629230766,-0.16955118313846154,-0.34650500559999997,-0.023754597826153846,-0.40285440769230774,-0.28452700006153847,0.27311078398461536,0.16101935526153843,0.047012029166153844,-0.2474394805230769,-0.21808348592307691,-0.3513857004307692,-0.29819308206153855,-0.026476981987692303,-0.1267113958046154,0.1433182516553846,0.12366659711692307,-0.2299921561323077,0.29632040223076916,0.3708143226415385,0.08417050348,-0.09765290124615383
lymphography#CIN14_Lac_Central,-0.16113389179999998,-0.2526660408,-0.19808005248000002,0.169945487176,-0.25116964592,-0.3652815552,-0.37317048280000004,-0.004469958740000001,0.5014418444000001,-0.256949733498,0.276346713748,0.28480249539999997,-0.37618919319999994,0.26882248904,0.28565845508,0.4532470172,0.14589318990400002,0.4280237928,-0.25286392324,-0.18772045118000003,-0.36792327319999996,-0.051948162279999995,-0.38284255200000006,-0.19731153528,0.3073056954,0.22720250216,-0.005627386600000007,-0.25523927672,-0.22222070672000002,-0.43140691400000003,-0.28817409436,-0.1563043356,-0.042629931360000005,0.28247565596,0.24797524167999996,-0.14181091996,0.18802766116,0.44965637742000003,0.11870788380000001,-0.16124376352
lymphography#CIN14_Lac_Margin,-0.10186884789466667,-0.3746319244266667,-0.14234637294133334,0.22301104776000003,-0.38212194509333336,-0.30632191454666674,-0.37769243245333334,-0.11061871985733333,0.43719061333333326,-0.21983060503066668,0.17646463429866668,0.02264537757444001,-0.3552976573333334,0.3064951042066667,0.291750402,0.5659049545333333,0.1254506726292,0.36465763393333334,-0.33257530117333334,-0.17830814928,-0.3308356630666667,-0.0039662281146666655,-0.38819294680000005,-0.2410888622666667,0.3360567436,0.1447549488346667,0.09644988651119998,-0.30839146896,-0.17145340030666667,-0.3926278323733333,-0.29213709095999996,-0.024533307248,-0.11623718626666665,0.09148214601733333,-0.06769996378266666,-0.23857031656800004,0.23050635846266668,0.3767451196,0.13278072984266667,-0.09072066321733335
lymphography#CIN14_Lacunar,-0.0732601711952381,-0.34163752166666667,-0.11055447946666666,0.22029478866666666,-0.4939244181190476,-0.36613544771428574,-0.3600545204761904,-0.08359223063571429,0.4823105833333333,-0.10416813300000001,0.1433681265357143,0.14666082691666665,-0.41291690166666667,0.3558479602857143,0.2535124992857143,0.5444984633333334,0.217627015,0.3210121259523809,-0.24569741992857144,-0.1703064687857143,-0.32617036107142855,0.00823387601904762,-0.30062856516666664,-0.282558853,0.290658542,0.20474065735714286,-0.07388655400000001,-0.34399501714285713,-0.14023839492857143,-0.38681309261904756,-0.26475357880952377,-0.1759365931502381,-0.10087615229285715,0.24166517953809524,0.2606093234166667,-0.17035670664285713,0.41344712523809524,0.37248297609523806,0.1521678981095238,-0.1838522107142857
lymphography#CIS15_Coarse,-0.12633056264516132,-0.37308984032258075,-0.1651146984,0.24404294077419356,-0.41466914051612896,-0.21493175380645163,-0.38541981032258066,-0.10452413199999998,0.47446483419354835,-0.22534525416129028,0.20719983195161293,0.10892733888709678,-0.39615915419354836,0.2520779926129032,0.21937956512903226,0.6140820887096774,0.20169026321612904,0.3256129337096775,-0.21659032222580646,-0.13930333996774194,-0.359988285,0.035030106064516134,-0.4316042838709677,-0.2752766214193549,0.3432041930322581,0.21013136232258064,0.09856117438709679,-0.27983979387096775,-0.21446521754838704,-0.38486038251612903,-0.32164958770967733,-0.04944188899032259,-0.0361755688483871,0.10046692821290322,0.21600214543225804,-0.2051425530967742,0.3914874248387097,0.3525945109903226,0.12011905246129032,-0.1464094847193548
lymphography#CIS15_Diluted,-0.16661692655357138,-0.39317017571428575,-0.07889560153571427,0.19471346135714285,-0.32166928771428577,-0.25529125025,-0.4265323839285714,-0.1441418440892857,0.4398092485714286,-0.22349747433214281,0.20009756657142858,0.2111567041279643,-0.3807617625,0.2710901365,0.2794096905357143,0.45694519785714294,0.14369945177821428,0.3380600310714286,-0.3188035225,-0.20695738582142859,-0.34022593592857137,-0.07300765064285715,-0.3089646760714286,-0.23274753714285715,0.2378235069642857,0.17799463917857142,0.07673482238214287,-0.3628696642857143,-0.14941020924999998,-0.47107384785714285,-0.30699078732142854,-0.11718230342142855,-0.1184965770357143,0.1315294329892857,0.0705840115,-0.2317598957142857,0.1816638895714286,0.43134478639285717,0.17999341317857143,-0.04707922693928572
lymphography#CIS15_Drop-like,-0.0627545954526316,-0.38727053473684214,-0.15408886616842105,0.2092298375789474,-0.4718644992631578,-0.3833484321052632,-0.25051669989473685,-0.04499535531578948,0.34905035999999995,-0.19812789880526316,0.25754639726315787,-0.04486307259473685,-0.3557165447368421,0.3478130763421053,0.38419090631578945,0.6511731642105264,0.14680761535789474,0.36354266842105265,-0.35597318894736835,-0.2092742510526316,-0.38633199578947375,0.07736408417894736,-0.26671226063157893,-0.26965284405263157,0.27437240368421056,0.23878325584210527,0.11028558189473686,-0.28389723315789467,-0.1307778555263158,-0.41942828789473685,-0.18652860457894738,-0.08254837522105263,-0.10331983500000001,0.2036407118736842,-0.14901060717368422,-0.22925823389473687,0.28938085819473686,0.273378160831579,0.15944642305263157,-0.1883389005263158
lymphography#CIS15_Grainy,-0.1590359177142857,-0.3456491364285714,-0.1342128725,0.19378424521428572,-0.3218327092857143,-0.4553159242857142,-0.49000518571428575,-0.051588544857142864,0.47958558142857133,-0.11166259057142858,0.17368666333571434,0.09492795078571428,-0.36012168000000006,0.4027255221428571,0.17868522721428567,0.53911871,0.021248751392857142,0.34377130571428566,-0.30195399928571437,-0.18595341125,-0.35808199857142864,-0.015352966428571433,-0.42043086071428565,-0.2194359445714286,0.33241315285714285,0.08104923571428571,0.12334250892857143,-0.20440742778571425,-0.14915659050000002,-0.44836182357142856,-0.33167924428571427,-0.13893538785714288,-0.06895973726714286,0.1185010550714286,-0.12362945105714286,-0.21081781892857143,0.20710834142857143,0.4336275014285714,0.08839223721428571,-0.14213119735714283
lymphography#CIS15_Reticular,-0.33436960000000004,-0.36025184499999996,-0.041709562000000006,0.404554225,-0.48257348,-0.40740962999999997,-0.42347358,-0.09316920000000001,0.502340675,-0.411040155,-0.21475435999999998,0.10050703,-0.13125719,0.36569017000000004,0.442402155,0.48349485,0.191015585,0.527719695,-0.053302806499999994,-0.211401575,-0.31582063,-0.067742814,-0.385451865,-0.248210345,0.20485219999999998,0.11587445499999999,-0.1606984473,-0.29626405,-0.20783189000000002,-0.320012885,-0.37486189999999997,-0.117280097,-0.132122685,0.15067436499999998,0.1056261835,-0.19144877,0.44178434,0.49596618000000003,0.304282605,-0.1485682095
lymphography#CIS15_faint,-0.027602037315555564,-0.2714220122666667,-0.14907893807999997,0.19568818592,-0.4278233265111111,-0.3955087324444444,-0.33541815146666665,-0.07447760623777779,0.5011274531111111,-0.15051364584777777,0.15711868889777778,0.0917014441,-0.39695723400000005,0.34555682866666676,0.3076918789777778,0.5145168251111111,0.18018929988888893,0.3867135706666667,-0.31845806044444447,-0.16993722779999998,-0.2676500783111111,-0.022235312804444445,-0.367685525,-0.24298320246666671,0.35938682488888885,0.15897619834666665,-0.09374135672800002,-0.3621601346666667,-0.15372951282222222,-0.34595770600000003,-0.2506847193333334,-0.07380771189355556,-0.1318698742,0.23132469879999995,0.09998426094444443,-0.18215970488,0.2602650271111111,0.42564990924444446,0.12532502745555554,-0.12934857217111115
lymphography#CIS15_stripped,-0.23657373071428572,-0.27563496142857147,-0.269656755,0.22736767000000002,-0.2631563342857143,-0.43513754000000004,-0.3149367057142857,0.09285380224285714,0.37011675142857137,-0.17440326514285712,0.21030097614285714,0.2893392185714286,-0.24073387,0.2584669885714286,0.27097311428571424,0.5023155257142857,0.18477075199999998,0.4122345728571428,-0.2881571457142857,-0.23333716914285713,-0.4793525685714286,-0.06597886914285714,-0.31999528999999993,-0.22033153599999997,0.3733827571428571,0.1700968228571429,-0.031001989714285725,-0.13783676157142857,-0.2238391885714286,-0.46902645428571427,-0.3856164042857143,-0.226339923,-0.06278119428571428,0.30209734489999995,0.36381506342857145,-0.1817595337142857,0.38335024285714286,0.44118063428571425,0.07581483257142856,-0.18450347057142857
lymphography#DIN13_Lac_Central,-0.14588522634,-0.27747753424,-0.144226034852,0.20780081658,-0.34963611800000005,-0.34332043052000005,-0.3991948336,-0.09092009464999999,0.4872269608,-0.18649931515399998,0.180910848792,0.20735953953,-0.39363054719999996,0.25973672155000005,0.22276613146,0.46691053339999994,0.15619576206,0.3063555584,-0.3103475257,-0.16412230239,-0.3995212484,0.04678775427399999,-0.407830042,-0.23978625902,0.33637815357999995,0.19821866431999996,-0.033614361674,-0.34262016030000003,-0.19445402369999998,-0.37260727856000003,-0.2916647278,-0.09216520107399999,-0.06942680525999999,0.180973052666,0.172117914522,-0.205785381092,0.33519439355999997,0.47110680994000004,0.082962567054,-0.12184529558599999
lymphography#DIN13_Lac_Marginal,-0.09119594237173913,-0.3901804410869566,-0.14323720674782606,0.22516927313043478,-0.33031236915217393,-0.2954088255434783,-0.42646685569565224,-0.11594582041956522,0.4498516015217392,-0.22119619284239128,0.21540074391304348,0.04850963649093479,-0.34865251739130443,0.29996141121739134,0.3455967032608695,0.5415500315217391,0.1408226733476087,0.4172795738043477,-0.2761348184347826,-0.17994159041304345,-0.3474651576956521,-0.05060808618695652,-0.41816715760869566,-0.2268543626956522,0.3316279402173913,0.11374018662173911,0.08832302606608694,-0.27479311215217395,-0.20176358226086955,-0.40570725695652177,-0.29762579721739124,-0.04512258175869565,-0.11753175380434783,0.08022271833913044,-0.02420939469565217,-0.23060632639130435,0.15958422512391304,0.37342965993478255,0.17102598252173912,-0.04357532267391304
lymphography#DIN13_Lacunar,-0.07893426533061226,-0.365120657755102,-0.14263620749387754,0.20411290882448976,-0.5021210763265306,-0.359910409877551,-0.28126861840816325,-0.041187536177551026,0.4386032946938775,-0.160373606577551,0.15864810859183673,0.06734916976530611,-0.3808635455102041,0.38470546224489793,0.27965715395918367,0.6210244869387755,0.18112374383265306,0.36818608,-0.2960644402653061,-0.191734647755102,-0.2586536116530612,-0.030497986895918372,-0.2541992503469388,-0.27310290536734694,0.2822718359183674,0.21108769724489798,0.040288965510204076,-0.30786470563265306,-0.10934546651020409,-0.42488088530612245,-0.2611653912040816,-0.1417309603532653,-0.09932946523061224,0.24060754678163268,0.09734555250408163,-0.17741924963265304,0.33012737183673474,0.3257818617857143,0.15762382594081634,-0.22166560432653062
lymphography#DislocationOf17,-0.15052889206836736,-0.3128782982857143,-0.17008088036020405,0.22007011502040816,-0.3569145335816327,-0.3529388305102041,-0.3895366273265306,-0.08066480628367347,0.45484102265306126,-0.21014114331785713,0.19287913886836733,0.1712964204408163,-0.3633872792857143,0.2981934497704082,0.2785418949285714,0.5379877782653061,0.17374170306010206,0.3460244287244898,-0.30369515329591834,-0.17052482388265308,-0.3530495851938776,0.003683944166326526,-0.36200952117346946,-0.24252248429591836,0.342997496377551,0.17375369244489794,0.0006899136657142842,-0.2714431764285714,-0.19476985930612245,-0.3924271078979592,-0.3039585567040817,-0.07882939044387756,-0.08148951219693877,0.2002421577,0.10813265408265307,-0.19074362810816328,0.283214607017347,0.41748971174999994,0.1258470491153061,-0.15730465125816326
lymphography#EarlyUptakeIn9,-0.11686579976634616,-0.34009440609615377,-0.14371555843653844,0.21540383759038464,-0.38655311585576924,-0.3394764104807692,-0.38852732921153843,-0.050870437495192315,0.4782304117307692,-0.2030286089370192,0.15373384791442307,0.15652321510576922,-0.35937684576923073,0.3084840184375,0.2765071768076923,0.5327080021153846,0.15689306635384614,0.38902471163461533,-0.28498785200000004,-0.17564078063942307,-0.3376361472019231,-0.025923218859615384,-0.35852994083653844,-0.23784789421153849,0.3219851151442307,0.18660507124038458,-0.0013464319678846148,-0.2765664047115384,-0.18129919985576923,-0.39453782350000005,-0.3059401571057692,-0.09240571630875,-0.09092895677923075,0.19441335105961538,0.13104563276923079,-0.19428503479423076,0.2809267524009615,0.4234313680211539,0.14346667684423078,-0.13115248374038463
lymphography#ExclusionOfNo18,-0.12289954276324787,-0.32278017215384625,-0.15172048857264955,0.20865812525982907,-0.3880512132564103,-0.3354237584358974,-0.36841229553846155,-0.08951124722649571,0.45029680803418803,-0.2034318565166667,0.18574393682393164,0.14460611538205123,-0.3728233893162393,0.2855070969529915,0.26999433424786323,0.5246527311111111,0.16730263519735042,0.380174321965812,-0.30190257394871806,-0.16570263226068377,-0.34295825854700857,-0.014032959203418804,-0.3689149986752136,-0.24207164532478634,0.336480382008547,0.1719434506376068,0.0026188818917948753,-0.301816314940171,-0.17705355991452995,-0.4054707466153847,-0.29143490671794864,-0.08429033192743589,-0.09015864142991452,0.18071238261709402,0.10463456882991454,-0.2037189353897436,0.2896861512564103,0.42102881332478626,0.13777833171196582,-0.13014567681452993
lymphography#Extravasates7,-0.11699844775999999,-0.32921615682666666,-0.15998033007333337,0.22998427453333334,-0.38874789229333334,-0.30558551555999997,-0.3859784218133333,-0.10010376024666666,0.4643132789333334,-0.19950814466333333,0.20771359607333337,0.14461381986666666,-0.3885585637333333,0.2580210592199999,0.22652487732,0.559822364,0.24103021128,0.3855802538666666,-0.2986795387066667,-0.16465341429999997,-0.34700143333333333,0.012167789380000004,-0.3836435847333333,-0.23808876149333338,0.30720991491999994,0.1681822591146666,0.0743508214832,-0.28262047177333327,-0.19136480749333334,-0.4019569759733333,-0.2917796197733334,-0.07876017836280001,-0.0783883202672,0.17596334467600003,0.15690329904399997,-0.20797834430133333,0.29207583496,0.3969896145866667,0.091469872324,-0.07891263973733333
lymphography#L2_Arched,-0.1073403150119403,-0.34325492773134325,-0.08078652879402985,0.2370746676567164,-0.4549914776119403,-0.38243290462686563,-0.37608209223880595,-0.0760680961522388,0.44526145716417914,-0.17401819607537317,0.16795974843880598,-0.009605157676119405,-0.3692018511940298,0.3234616278507462,0.3245831129104477,0.5159761649253731,0.15366266797597014,0.3601015325373134,-0.3055309602089552,-0.18109206650746268,-0.24678830798507462,0.02323190388358209,-0.3436206386567164,-0.28094844307462685,0.3247158990298507,0.21866281201492538,-0.043505103192537316,-0.3135687809701492,-0.16578041258208953,-0.40055049340298504,-0.2933302491940299,-0.09636622377626866,-0.09757554292985074,0.15384152268507464,0.08077113299552237,-0.23728700874626868,0.2986692315820895,0.37661951711940306,0.14965937146567163,-0.07792830980149253
lymphography#L2_Deformed,-0.10804935097826086,-0.32004711986956524,-0.17623547582608692,0.1890812249782609,-0.3847417801304347,-0.2902697651086957,-0.3562899088260869,-0.11225732871739129,0.5129983869565217,-0.1689968433478261,0.16980990715652175,0.18710708662136954,-0.4115645700000001,0.32710232708695647,0.23066159995652175,0.5725160836956522,0.17274739348695653,0.30871500478260866,-0.24413243004347826,-0.1793835743369566,-0.37966739804347827,-0.08644350993478261,-0.4234655120652175,-0.19569191321739127,0.3044226074782609,0.1324934530347826,0.1738931846521739,-0.33851207830434776,-0.13212474008695654,-0.4021702369565218,-0.2526000066956522,-0.11871448546521739,-0.08034459319565217,0.11210170802826086,0.10438787038260867,-0.1820730053043478,0.2220118347608695,0.4082548847173913,0.16061383264347825,-0.14980143536956522
lymphography#L2_Displaced,-0.10001837353030303,-0.3661901657575758,-0.22432601675757577,0.19408888676969696,-0.2918580416666667,-0.3003527775757576,-0.3647957199393939,-0.05047881628181818,0.40424191575757573,-0.24669627241515152,0.24926830018181817,0.24070106748484849,-0.3383951142424243,0.27597825065151516,0.2684261667878788,0.5591792084848484,0.15834789484848483,0.4366904571212121,-0.3455917884848485,-0.17441833766666667,-0.45772950969696974,0.03483668630303031,-0.29795760824242423,-0.25697280012121215,0.3132547845454545,0.15130162700000002,-0.022432481871515156,-0.257524811,-0.21831839048484847,-0.4003305578787879,-0.3066873505151515,-0.050896969378787876,-0.11361044912121213,0.2874261751515152,0.055868876196969695,-0.1691965394121212,0.311140496930303,0.38983379143939395,0.07596977,-0.21016653426060605
lymphography#L2_Normal,-0.0078431405,-0.260686095,-0.061096199000000004,0.15167469500000003,-0.13867467,-0.56942783,-0.36533701,0.1581168815,0.282589345,-0.08337398200000001,0.201413406,0.07468379,-0.35569037000000003,0.45024851,0.19140583100000003,0.804304095,0.14496998249999998,0.176203781,-0.16968803999999998,-0.42603368500000005,-0.34493605000000005,-0.1410169635,-0.39612005000000006,-0.14289200000000002,0.271688035,0.08879015249999998,0.15029538,-0.3416323,0.00469684345,-0.43720504,-0.297299755,-0.182942245,-0.13198616637,0.38088104,-0.24357090999999997,-0.316091465,0.41214951,0.53220606,-0.066923136,-0.016834956999999998
lymphography#LND10_0,-0.10324937967112678,-0.34592340846478875,-0.13875380357887324,0.21380157437605632,-0.3841310488098591,-0.3404344763732394,-0.3724059160845071,-0.07542324603169015,0.455695184859155,-0.19374508358978873,0.18674571694788736,0.0990189639949507,-0.3731666078873239,0.31251386009507043,0.2804427756971831,0.5473235186619718,0.15010073830838028,0.3572455526549295,-0.29340211243661973,-0.18336628777112676,-0.33046204545774643,-0.005342115301408449,-0.3611096541690141,-0.24515391090140842,0.31800719935915495,0.1794177166380282,0.024849287805211263,-0.30379779161971826,-0.17020371626126757,-0.4017724756901408,-0.2865590502183099,-0.08625271792894365,-0.09693235476788731,0.17150882074084506,0.07143954491056338,-0.2072962661169014,0.2731831135471831,0.38978378761619714,0.13240921460422536,-0.13003930200915492
lymphography#LND10_1,-0.03210026666666667,-0.17205516333333334,-0.31535717333333335,0.11856074133333333,-0.52979386,-0.29852796333333337,-0.25763641666666665,-0.07324921566666666,0.47979756666666673,-0.063457495,0.34436216000000003,0.26950954,-0.4159034066666667,0.50287556,0.26600212333333334,0.5484598566666666,0.29703326,0.46187400000000006,-0.24419776333333335,-0.01696063166666667,-0.47729825000000003,-0.04149725766666667,-0.3338909233333333,-0.3927043833333333,0.3519864833333333,0.127746309,0.04642468999999999,-0.4959445633333333,-0.10411301333333334,-0.32649684333333334,-0.16438782666666665,-0.28022480266666666,-0.17971746,0.15379630333333336,0.24697252516666665,-0.076953294,0.43841631666666664,0.46752541,0.08656041799999999,-0.19455831833333334
lymphography#LND10_2,-0.24021704833333332,-0.22953527999999998,-0.13178954666666667,0.19150531666666668,-0.6517416966666666,-0.2628771966666667,-0.23373981000000002,-0.22670605133333335,0.39583213,-0.01287484333333333,0.04742043533333332,0.3955539066666667,-0.43651507333333334,0.28027353000000005,0.32583227000000003,0.53411525,0.51726491,0.3254650233333333,-0.34962598666666667,-0.30126354333333333,-0.4789858866666667,-0.22307167666666664,-0.28253128499999997,-0.2004305333333333,0.14240245999999998,0.018362183666666667,0.32556349999999995,-0.37837572999999997,0.03370928766666667,-0.46361679000000006,-0.2678201566666667,-0.29144248333333334,0.019005646666666667,0.298414998,0.22823536333333336,-0.2741089633333333,0.40268908666666664,0.3967618366666666,0.24226020000000004,-0.010657496000000002
lymphography#LND10_3,-0.06485971,-0.27388036,-0.100515045,-0.09547979,0.11984646,-0.3372373,-0.38949114,-0.10250113,0.4073004,-0.05023545,0.22220665,0.10987824,-0.22900748,0.39449373,0.35408512,0.52608436,0.24181606,0.32403243,-0.21702372,-0.47947302,-0.2695257,0.038785506,-0.33491835,-0.40720093,0.37875992,-0.008324872,0.023127403,-0.33554074,0.03907569,-0.49294922,-0.15436117,-0.19143316,0.006369331,0.031990424,-0.018344367,-0.2227506,0.35051045,0.021583261,0.150564,-0.17287506
lymphography#LNE11_1,-0.13164649523076924,-0.21166259999999998,-0.22350291815384618,0.18762833338461543,-0.4986077335384615,-0.37108652076923077,-0.2657505723076923,-0.10660063084615384,0.2937386061538461,-0.12095713984615387,0.26183660284615384,0.15998337682307692,-0.42424696461538464,0.40196137615384614,0.3539597684615384,0.6282529930769231,0.3045005649230769,0.3182541816923077,-0.3633197969230769,-0.23258685384615385,-0.39273265307692307,-0.03337776861538462,-0.2598146626923077,-0.31192157230769235,0.22980713076923076,0.1811043762307692,0.10406517946153847,-0.34963958307692317,-0.05359606662307692,-0.4037159753846154,-0.22307391784615385,-0.13537421720769233,-0.11210748884615383,0.31765522261538465,-0.051316123961538465,-0.24724979992307697,0.3430413915384615,0.32557697884615383,0.1524849513076923,-0.15070938230769232
lymphography#LNE11_2,-0.07603402423055555,-0.380780716,-0.08893659785000001,0.20136532136666668,-0.42746781036111114,-0.37717746995833334,-0.3461101172777778,-0.06688348755833334,0.48254689055555555,-0.14624488373055555,0.15480316349444445,0.010646748334486112,-0.38385287805555557,0.32542329411111115,0.26478215106944447,0.57137709125,0.09428115298597223,0.3341221136111111,-0.3178872770555556,-0.18732382281944443,-0.3015966425138889,-0.01817878325833333,-0.3558956804444445,-0.2376441673472222,0.3185852721388889,0.14567559459722224,0.08534305734222221,-0.3509344312777778,-0.13375464734722223,-0.44612442375,-0.2601546305138889,-0.14819731889319443,-0.12400845923249999,0.11754789845277777,-0.009584444737500005,-0.20653294016666665,0.2387565068986111,0.3592738351527778,0.1130637840763889,-0.09274862362916665
lymphography#LNE11_3,-0.0923613628767442,-0.3133450160465117,-0.16394884172093022,0.23254301158139531,-0.3807962855581395,-0.24044032939534887,-0.43626909511627904,-0.10612354946511628,0.4741959460465116,-0.282781382777907,0.2012379709534884,0.17350671543023255,-0.3585178739534884,0.31080040023255817,0.3009367054651163,0.5034875902325583,0.23890051247674418,0.4152300774418605,-0.2550074830232558,-0.15938577634883722,-0.30649916009302325,0.04312225136744186,-0.3965043048837209,-0.24586666283720934,0.33218678034883725,0.2197534479209302,-0.04772721282093024,-0.2808791127209302,-0.20830081313953486,-0.3083852787906977,-0.31560016353488374,0.0296978965372093,-0.07208146096046511,0.17086495178139535,0.11135250177674418,-0.21280652957209306,0.2966177348139535,0.42896210943023266,0.18454384113255815,-0.19423317864418602
lymphography#LNE4,-0.21604855360000003,-0.3342117145,-0.23428535464999997,0.21766003824999997,-0.22286962200000002,-0.3853037177,-0.36107558950000007,-0.042261740265,0.41916008299999996,-0.173956248935,0.22451516165000002,0.28743723425,-0.34890137099999996,0.235301156375,0.24961535635,0.5005629555,0.13688634771500002,0.35209478375000003,-0.24341040689999996,-0.18140763312500002,-0.48972581149999994,-0.08318802989999999,-0.35375364000000004,-0.24268165535000005,0.3215262645,0.1811621639,-0.040035693600000005,-0.19359259054999997,-0.25480602230000005,-0.43960996350000003,-0.33930538600000004,-0.14049127855,-0.03805102880000001,0.288536347,0.40695355494999996,-0.1626978349,0.3455374575,0.46982860099999996,0.08651441692999999,-0.10460393876499999
lymphography#NON19_greatThan70,0.028506222499999997,-0.190068595,-0.36723956,0.10467016300000001,-0.536520735,-0.33612384,-0.24283877999999998,0.0062243355,0.454997555,-0.25661913999999997,0.44652519999999996,0.37624579999999996,-0.261521475,0.368125375,0.21927786500000002,0.43420175000000005,0.25670272,0.48130229999999996,-0.31433829999999996,-0.18298567000000002,-0.49962958,-0.19756993,-0.19186873,-0.367271095,0.3300037,0.25509355499999997,0.1109912,-0.36429889499999996,-0.062033754999999996,-0.363708075,-0.302980045,-0.37185086,-0.261589605,0.352677895,0.40228048499999997,-0.117701308,0.28731944,0.5763720999999999,0.127907502,-0.220135825
